tree
version=v4
num_class=1
num_tree_per_iteration=1
label_index=0
max_feature_idx=10
objective=regression
feature_names=week_index district state year week lag_1_bio_count lag_2_bio_count roll_avg_4_bio_count velocity_bio_count lag_1_enrol_count roll_avg_4_enrol_count
feature_infos=[0:23] -1:339:197:237:426:279:3:48:63:64:72:91:114:127:131:190:192:226:283:315:344:357:423:429:445:452:473:501:536:553:600:618:627:685:696:705:727:840:917:366:40:440:441:384:552:815:312:342:395:817:85:351:413:404:809:682:752:837:520:735:435:588:836:589:947:53:951:34:65:238:887:99:208:485:912:690:707:188:451:36:313:643:689:841:20:168:409:854:4:5:7:8:9:10:11:12:13:14:15:16:17:18:19:21:22:23:24:25:26:27:28:29:30:31:32:33:37:38:41:42:43:44:45:46:47:50:51:52:54:55:56:57:59:61:62:66:67:69:70:73:74:75:76:77:78:79:80:81:82:83:84:86:87:89:90:92:93:94:95:96:97:98:101:102:103:104:105:106:107:110:112:113:115:116:117:118:119:120:121:122:123:124:125:126:129:130:132:133:134:135:136:137:138:139:140:141:142:143:144:145:146:147:148:149:150:152:153:154:155:156:157:158:159:160:161:162:163:164:165:166:167:169:170:171:172:173:174:175:176:177:178:179:180:181:182:183:184:185:186:187:189:191:193:194:195:196:198:199:200:201:202:203:204:205:206:207:211:212:213:214:215:216:217:218:219:220:221:222:223:224:225:227:228:229:231:234:235:236:239:240:241:242:243:244:245:246:247:248:249:250:251:252:254:255:256:257:259:260:261:262:263:264:265:266:267:268:269:270:271:272:273:274:275:276:277:278:280:281:282:284:285:287:288:289:290:291:292:293:294:295:296:297:298:299:301:302:303:304:305:306:307:308:309:310:311:314:316:317:318:319:320:321:322:323:324:325:326:327:328:329:331:332:333:335:337:340:341:343:345:346:347:348:349:350:352:353:355:356:359:360:361:362:363:365:367:368:369:370:371:374:375:376:377:378:379:380:381:382:383:385:386:387:388:389:390:391:392:393:394:397:398:399:400:401:402:403:405:406:407:410:411:414:415:416:417:418:419:420:421:422:424:425:427:428:430:431:432:433:434:436:437:438:439:442:443:446:447:449:450:453:454:455:456:457:458:459:460:461:462:463:464:465:466:467:468:469:470:471:472:474:475:476:478:479:480:481:482:483:484:486:487:488:489:494:495:496:497:498:499:500:504:505:506:507:508:509:510:511:512:513:515:516:517:518:519:521:522:523:524:525:526:527:529:530:531:532:533:534:535:537:538:539:540:541:542:543:544:546:547:548:549:550:551:554:556:558:560:561:562:565:566:567:569:570:571:572:573:574:575:576:577:578:579:580:581:582:583:584:585:590:591:592:593:594:595:596:597:598:599:601:603:604:605:606:607:608:609:610:611:612:613:614:615:616:617:619:620:621:622:624:626:628:630:631:632:633:634:635:636:637:638:639:640:641:642:644:645:647:648:649:650:651:652:653:654:655:656:657:658:659:660:661:662:663:664:665:666:667:668:669:670:671:672:673:674:675:676:678:680:681:683:684:686:687:688:691:692:693:694:695:697:698:699:700:701:703:704:708:709:711:712:713:714:715:716:717:718:719:720:721:722:723:724:725:726:728:729:730:731:732:733:734:736:737:738:739:740:741:742:743:744:745:747:748:750:751:753:754:755:756:757:758:759:760:761:762:763:764:765:766:767:768:769:770:771:772:773:774:775:776:777:778:779:780:782:783:784:785:786:787:788:789:790:791:792:793:794:795:796:797:798:799:800:801:802:803:804:805:806:807:808:810:811:812:813:818:819:821:822:823:824:825:826:827:828:829:830:831:832:833:834:835:838:839:842:843:844:845:846:847:848:849:851:852:853:855:856:857:858:859:860:861:862:863:864:865:866:867:868:869:870:871:873:874:875:876:877:878:880:881:882:884:885:886:888:890:891:892:893:894:895:896:897:898:899:900:901:902:903:904:905:906:907:908:909:910:911:913:914:915:916:919:920:921:922:924:925:926:927:928:929:930:931:932:933:935:936:937:938:939:940:941:942:943:944:945:946:948:949:955:35:109:408:629:111:230:233:286:492:850:2:60:300:372:493:568:625:358:923:952:373:514:557:706:746:781:209:448:559:564:602:879:490:528:872:151:210:330:545:646:679:918:49:88:108:491:950 -1:46:28:24:29:6:3:53:42:35:44:40:17:9:5:23:36:39:22:4:18:33:25:47:19:15:31:30:32:41:45:20:38:2:12:37:16:14:26:13:1:7:52:55:49:56:10:11:27:51:57:50:34:58:59:0:48 none [1:52] [0:83938] [0:83938] [0:38062.25] [-0.99998808658668792:83938] [0:8823] [0:6657.75]
tree_sizes=5244 5487 5498 5487 5507 5501 5523 5490 5529 5527 5536 5516 5552 5517 5578 5523 5548 5574 5575 5573 5577 5624 5765 5588 5722 5722 5657 5656 5624 5743 5592 5911 5664 5733 5666 5847 5844 5818 5891 6168 5643 5878 5849 5909 5647 6047 5642 6085 6329 5598 5865 5696 5877 5601 5982 5926 6770 6041 5895 5997 5933 6458 5652 6223 5604 5940 5671 5674 7169 6273 6404 6108 5720 6385 6192 6448 6639 6440 6353 6588 7676 7796 5638 7553 7143 7918 6380 7371 6860 6466 7141 6800 5752 7606 6915 7541 6669 5669 7203 6889 5732 5720 5711 7279 7228 6647 5656 6946 7796 7035 7018 7416 6911 7312 7313 7413 7348 6668 6862 6752 7217 7270 6886 7111 7715 6524 6811 6950 6852 6515 6762 6566 6722 6686 5638 5662 6524 6690 6673 7070 7010 6659 6747 6096 6537 6431 6787 6375 6733 5793 7034 6422 6822 5762 5693 6316 5659 6460 6548 6928 6734 6451 6473 5638 6278 6174 6318 6507 6450 6450 6713 6665 6315 6636 6332 6218 6201 7065 5722 6457 6439 6493 6398 6347 6634 5692 5685 5734 6639 5766 6588 6499 7087 6307 5730 6987 7268 5710 6353 6222 7047 5659 6738 5679

Tree=0
num_leaves=63
num_cat=0
split_feature=9 0 4 4 0 6 8 0 8 6 6 4 0 7 0 7 7 7 4 4 4 7 4 8 7 8 4 4 4 7 7 4 4 4 4 4 7 7 10 7 6 10 4 0 10 9 7 0 7 7 8 10 7 10 7 8 4 7 10 7 9 10
split_gain=60899.9 42561 15546.6 48159.4 22038.9 26710.2 12368.3 14676.5 7692.85 3959.57 3031.07 2938.89 2854.66 2813.85 2554.45 1804.44 1544.59 1005.68 958.855 878.474 811.865 1081.22 756.137 639.412 538.649 495.899 445.363 866.879 559.789 400.04 383.233 374.769 362.557 697.467 321.249 305.852 300.333 298.366 295.955 294.97 260.93 230.306 174.625 170.069 165.504 155.613 138.154 152.37 121.101 110.203 108.443 102.726 88.0576 84.2304 79.5216 78.4014 78.2984 71.7098 69.3046 63.9058 62.5818 62.1781
threshold=7.5000000000000009 16.500000000000004 27.500000000000004 34.500000000000007 6.5000000000000009 1.0000000180025095e-35 296.50000000000006 21.500000000000004 97.250000000000014 179.50000000000003 361.50000000000006 27.500000000000004 6.5000000000000009 1023.8750000000001 3.5000000000000004 665.25000000000011 133.87500000000003 20.875000000000004 39.500000000000007 41.500000000000007 34.500000000000007 3.8750000000000004 41.500000000000007 1792.5000000000002 3768.6250000000005 0.15542724966485785 9.5000000000000018 8.0000000000000018 1.5000000000000002 66.875000000000014 24.875000000000004 32.500000000000007 12.500000000000002 14.500000000000002 39.500000000000007 41.500000000000007 227.62500000000003 168.62500000000003 58.625000000000007 10.875000000000002 2238.5000000000005 8.3750000000000018 37.500000000000007 8.5000000000000018 5.3750000000000009 107.50000000000001 8.1250000000000018 5.5000000000000009 6.8750000000000009 2153.7500000000005 898.50000000000011 1.3750000000000002 7124.0000000000009 1.1250000000000002 53.625000000000007 3557.0000000000005 46.500000000000007 683.62500000000011 117.87500000000001 31.875000000000004 1.5000000000000002 1.1250000000000002
decision_type=2 2 2 2 2 2 2 2 2 2 2 2 2 2 2 2 2 2 2 2 2 2 2 2 2 2 2 2 2 2 2 2 2 2 2 2 2 2 2 2 2 2 2 2 2 2 2 2 2 2 2 2 2 2 2 2 2 2 2 2 2 2
left_child=1 8 4 -4 5 14 7 9 11 18 29 12 26 36 -2 37 25 41 -3 -11 -13 42 -20 50 49 39 27 28 -1 56 48 51 -28 -34 43 -36 54 -5 -17 -14 57 -16 61 -23 60 -19 -37 -48 -24 -15 -8 -10 -26 -35 -6 -25 -9 -12 -40 -49 -18 -22
right_child=2 6 3 15 13 -7 23 10 31 19 40 20 16 24 17 38 44 45 22 -21 21 34 30 55 52 -27 32 -29 -30 -31 -32 -33 33 53 35 46 -38 -39 58 -41 -42 -43 -44 -45 -46 -47 47 59 -50 -51 -52 -53 -54 -55 -56 -57 -58 -59 -60 -61 -62 -63
leaf_value=3.8767480766297293 3.6935879088015269 3.9442963952302015 3.6935879088015269 3.9366506054184587 3.896763731262805 3.6978835711581497 4.0085896691421956 3.8958388038453622 3.73955502318042 3.6954722280617567 4.0304690321535777 3.6935879088015269 3.7729128722789422 4.1167672629339656 3.8899590620388853 4.0551636505351052 3.942158753077138 4.1250827228284921 3.6935879088015269 3.9552115177470126 3.7547714048747323 3.8005925886785596 3.7598156022547871 4.0854691816410922 4.1716111488173286 3.7334594332364492 3.6935879088015269 3.9746559147917639 3.6935879088015269 3.9566001355184359 3.8924941925651901 3.9025302234452783 3.9714039019910001 3.7910505844839673 3.6935879088015269 3.7717521518244381 4.0623644379478048 4.0097731521123432 4.0875045431310761 3.9297493619941091 4.1252755479366714 4.0418513095887816 3.7283533027865623 3.8833353840801554 4.080875865657041 4.1755550318055006 3.7258969110445093 3.8279692377561987 3.8311022328997315 4.1486209090726396 4.0488862158347114 3.6942373611292165 4.1990634343474067 3.7069779658900646 3.9983469747910521 4.1202015900296001 3.8276756403400558 4.0761429171262371 4.1122828921092474 3.8853863825372068 4.0177354124590003 3.8321499586218075
leaf_weight=75 36 245 1486 203 22 795 307 80 129 765 125 337 37 490 31 556 35 274 90 34 47 87 87 408 719 58 151 80 94 292 269 22 44 49 65 160 460 446 572 158 273 128 698 217 110 345 32 210 189 609 366 4084 492 76 155 270 89 275 557 63 126 58
leaf_count=75 36 245 1486 203 22 795 307 80 129 765 125 337 37 490 31 556 35 274 90 34 47 87 87 408 719 58 151 80 94 292 269 22 44 49 65 160 460 446 572 158 273 128 698 217 110 345 32 210 189 609 366 4084 492 76 155 270 89 275 557 63 126 58
internal_value=3.88799 3.81312 3.99048 3.91608 4.05285 3.90402 3.94069 3.88097 3.74037 3.78711 4.01993 3.80068 3.86646 4.13411 4.10535 4.05774 3.95066 4.1244 3.86027 3.70652 3.76426 3.77881 3.82785 4.06503 4.15976 3.86181 3.78891 3.83906 3.77487 3.92117 3.85002 3.6967 3.74989 3.8002 3.81868 3.79518 4.04107 3.9869 4.08502 3.89999 4.08759 4.01224 3.7374 3.85966 4.0336 4.15321 3.80938 3.82912 3.80863 4.13442 4.0305 3.69562 4.18276 3.73993 3.98572 4.0993 3.85994 4.06187 4.09973 3.84122 4.00131 3.79751
internal_weight=19842 11466 8376 3820 4556 1609 4164 2813 7302 1679 1134 3067 1093 2947 814 2334 524 778 880 799 1974 1637 635 1351 2310 253 569 249 169 461 545 4235 320 169 834 530 637 649 1685 195 673 159 803 304 271 619 465 305 276 1099 673 4213 1211 125 177 678 169 400 1129 273 161 105
internal_count=19842 11466 8376 3820 4556 1609 4164 2813 7302 1679 1134 3067 1093 2947 814 2334 524 778 880 799 1974 1637 635 1351 2310 253 569 249 169 461 545 4235 320 169 834 530 637 649 1685 195 673 159 803 304 271 619 465 305 276 1099 673 4213 1211 125 177 678 169 400 1129 273 161 105
is_linear=0
shrinkage=1


Tree=1
num_leaves=63
num_cat=0
split_feature=8 10 0 0 4 4 4 5 0 6 0 4 4 4 4 4 4 4 4 4 7 4 8 7 7 4 4 7 10 7 7 4 5 4 4 6 7 6 4 4 4 4 7 7 7 5 0 5 7 5 7 7 5 4 0 10 4 7 5 5 7 5
split_gain=34456.7 34070.9 7571.81 6937.24 22973.4 19327.6 38518.9 15198 5876.31 5771.01 4825.06 4362.54 23265.8 3223.55 2938.33 5019.07 4588.56 2440.72 1572.3 1492.84 1452.43 1302.79 1276.99 1009.39 984.296 798.301 2211.53 675.537 577.449 478.346 438.018 368.71 330.781 330.645 329.997 307.801 245.304 214.308 207.195 198.853 197.5 189.823 177.005 168.313 142.884 139.908 125.318 124.871 121.898 117.619 106.542 106.422 103.677 102.3 98.619 95.376 84.2657 81.6781 77.1992 75.9848 75.4659 72.9708
threshold=4956.0000000000009 14.875000000000002 17.500000000000004 6.5000000000000009 9.5000000000000018 27.500000000000004 34.500000000000007 86.500000000000014 3.5000000000000004 53.500000000000007 16.500000000000004 39.500000000000007 41.500000000000007 14.500000000000002 12.500000000000002 27.500000000000004 41.500000000000007 12.500000000000002 9.5000000000000018 34.500000000000007 50.375000000000007 8.0000000000000018 -0.9963702239789195 4.8750000000000009 1661.6250000000002 34.500000000000007 39.500000000000007 1023.8750000000001 51.875000000000007 175.12500000000003 37.375000000000007 39.500000000000007 1.5000000000000002 1.5000000000000002 39.500000000000007 1829.0000000000002 5608.6250000000009 2579.5000000000005 41.500000000000007 1.5000000000000002 1.5000000000000002 37.500000000000007 9.6250000000000018 458.12500000000006 118.62500000000001 1032.5000000000002 11.500000000000002 3250.5000000000005 378.75000000000006 297.50000000000006 1661.6250000000002 294.75000000000006 9.5000000000000018 46.500000000000007 10.500000000000002 1.1250000000000002 12.500000000000002 99.625000000000014 476.50000000000006 2150.0000000000005 5.6250000000000009 217.50000000000003
decision_type=2 2 2 2 2 2 2 2 2 2 2 2 2 2 2 2 2 2 2 2 2 2 2 2 2 2 2 2 2 2 2 2 2 2 2 2 2 2 2 2 2 2 2 2 2 2 2 2 2 2 2 2 2 2 2 2 2 2 2 2 2 2
left_child=1 9 -2 4 8 7 -7 24 39 10 13 28 -13 17 40 22 25 18 21 55 31 33 35 41 43 -17 46 48 45 53 -10 -12 -24 -1 54 -16 -26 -29 -36 -3 -11 -21 -33 -5 -19 50 -27 -30 -14 51 -8 -22 -40 -18 -25 -15 -6 -32 -31 -39 -23 -48
right_child=2 3 -4 5 56 6 11 -9 30 14 20 12 27 19 15 16 29 44 -20 23 49 60 32 34 36 26 -28 37 47 58 57 42 -34 -35 38 -37 -38 59 52 -41 -42 -43 -44 -45 -46 -47 61 -49 -50 -51 -52 -53 -54 -55 -56 -57 -58 -59 -60 -61 -62 -63
leaf_value=0.0077417640015482909 -0.18471187353134155 -0.017075947147201408 0.2335166656865483 0.13145559657187689 -0.18484730474071084 -0.1846819309351484 0.11922496651013692 -0.18472086940336666 0.16520677585620436 -0.026793360642411491 0.041183892049763388 -0.18477331006374115 0.080286685611818231 -0.13736737555533182 0.12893052592988494 -0.18467940092086793 0.041346322815591453 0.072570441485099169 -0.1851807735898168 -0.080721601690205508 0.043395887286099333 0.067894360523854128 0.042626951566922505 -0.061611504451214494 0.25299845055686282 -0.060163518656855042 -0.18473849697546527 0.1690388706927064 0.19227891830219465 0.099931658424946099 0.23827810534443039 -0.11289242094525925 -0.11786319086464442 -0.18501483936832375 -0.18467940092086793 0.20150200378181587 0.2895173275983462 0.1975736651090112 -0.097357742418535065 -0.18476805991596645 -0.18478788642250762 -0.14922742158374533 -0.045233661925237367 0.20291256923277134 0.16159137941323795 0.17746166591195092 0.036744764306313675 0.22806117294940487 0.13409061631313843 0.11991585014022399 0.16896654138501907 0.10937395872157296 -0.045215646822444722 -0.02615314659871755 0.0058908824593974993 -0.17821738163058432 -0.10459343992611941 0.27705148329605928 0.16080212945287878 0.23775514881294893 0.14324229377998066 0.10459375065654071
leaf_weight=32 2559 22 113 105 861 1322 375 218 160 22 103 624 143 160 389 301 301 69 197 117 249 61 148 77 1204 23 220 789 704 161 251 130 41 73 47 234 744 404 208 90 196 745 377 383 130 276 97 373 399 107 151 81 176 69 182 1336 34 296 77 166 73 67
leaf_count=32 2559 22 113 105 861 1322 375 218 160 22 103 624 143 160 389 301 301 69 197 117 249 61 148 77 1204 23 220 789 704 161 251 130 41 73 47 234 744 404 208 90 196 745 377 383 130 276 97 373 399 107 151 81 176 69 182 1336 34 296 77 166 73 67
internal_value=-2.4639e-09 0.0259924 -0.167025 0.0849635 -0.00668983 0.10371 0.0520132 0.215245 0.184668 -0.0581305 -0.0899311 0.123065 0.080136 -0.116857 0.0059858 0.0238959 -0.0364219 -0.0143724 -0.080598 -0.138207 0.00478386 0.00560626 0.121653 -0.103853 0.251038 -0.122942 -0.0772831 0.167092 0.180752 0.064328 0.237975 -0.0450609 0.00781163 -0.12627 -0.058783 0.156189 0.266946 0.185915 -0.0855877 -0.151829 -0.168843 -0.139929 -0.0625821 0.187538 0.130725 0.148632 0.0491351 0.204671 0.119895 0.0743612 0.133504 0.0595905 -0.0734593 0.0287586 -0.0141774 -0.173848 -0.181799 0.25926 0.119625 0.209276 0.108942 0.0644636
internal_weight=19842 17170 2672 10094 1714 8380 5726 2654 819 7076 4730 4404 2525 3683 2346 2128 1316 635 436 3048 1047 239 812 1552 2436 708 407 1901 1879 608 707 610 189 105 690 623 1948 1359 431 112 218 862 507 488 199 802 187 1077 542 437 526 330 384 370 259 1496 895 547 238 570 134 164
internal_count=19842 17170 2672 10094 1714 8380 5726 2654 819 7076 4730 4404 2525 3683 2346 2128 1316 635 436 3048 1047 239 812 1552 2436 708 407 1901 1879 608 707 610 189 105 690 623 1948 1359 431 112 218 862 507 488 199 802 187 1077 542 437 526 330 384 370 259 1496 895 547 238 570 134 164
is_linear=0
shrinkage=0.05


Tree=2
num_leaves=63
num_cat=0
split_feature=9 0 4 4 0 6 8 0 8 5 6 4 0 0 10 10 5 4 4 5 9 8 6 5 4 4 4 4 0 4 4 9 4 4 4 8 10 6 10 4 5 10 9 4 4 10 10 10 5 6 5 10 4 6 10 6 10 5 5 5 5 8
split_gain=49633.3 34714.4 12691 39218.2 17943.6 21762.4 10049 12015.6 6252.53 3270.73 2486.65 2401.65 2336.87 2082.19 1685.08 1385.14 1193.06 898.382 946.548 760.584 749.942 536.828 476.696 361.642 358.496 695.266 455.52 352.442 447.718 311.935 307.341 581.694 295.205 568.404 289.047 288.264 227.874 191.872 184.721 183.031 177.692 136.806 129.363 122.573 297.932 120.038 118.959 99.1799 91.513 90.557 88.1566 87.6299 86.3488 159.09 85.1576 72.592 70.7315 65.3213 65.268 65.1657 61.1307 59.9932
threshold=7.5000000000000009 16.500000000000004 27.500000000000004 34.500000000000007 6.5000000000000009 1.0000000180025095e-35 296.50000000000006 21.500000000000004 97.250000000000014 297.50000000000006 407.50000000000006 27.500000000000004 6.5000000000000009 3.5000000000000004 25.375000000000004 38.125000000000007 21.500000000000004 39.500000000000007 41.500000000000007 7.5000000000000009 33.500000000000007 1792.5000000000002 1829.0000000000002 60.500000000000007 9.5000000000000018 8.0000000000000018 1.5000000000000002 18.500000000000004 8.5000000000000018 32.500000000000007 34.500000000000007 1.0000000180025095e-35 12.500000000000002 14.500000000000002 46.500000000000007 -0.99992927864179604 13.375000000000002 2238.5000000000005 8.3750000000000018 34.500000000000007 3572.5000000000005 5.6250000000000009 135.50000000000003 39.500000000000007 41.500000000000007 79.875000000000014 1.3750000000000002 4.1250000000000009 6.5000000000000009 198.50000000000003 910.50000000000011 79.875000000000014 16.500000000000004 380.50000000000006 1.3750000000000002 4577.5000000000009 1.1250000000000002 3250.5000000000005 2.5000000000000004 56.500000000000007 169.50000000000003 -0.99984667279614992
decision_type=2 2 2 2 2 2 2 2 2 2 2 2 2 2 2 2 2 2 2 2 2 2 2 2 2 2 2 2 2 2 2 2 2 2 2 2 2 2 2 2 2 2 2 2 2 2 2 2 2 2 2 2 2 2 2 2 2 2 2 2 2 2
left_child=1 8 4 -4 5 13 7 9 11 17 23 12 24 -2 22 36 27 -3 -19 30 38 50 52 -9 25 26 -1 41 -29 54 -13 58 -26 -34 59 -16 -5 -12 -15 -21 51 -14 -22 -41 -45 61 -33 -11 -36 -30 -8 -17 -6 -54 -10 -24 -35 -23 -32 -20 -25 -37
right_child=2 6 3 15 14 -7 21 10 29 47 37 19 16 20 35 40 -18 18 34 39 42 57 55 60 32 -27 -28 28 49 -31 31 46 33 56 48 45 -38 -39 -40 43 -42 -43 -44 44 -46 -47 -48 -49 -50 -51 -52 -53 53 -55 -56 -57 -58 -59 -60 -61 -62 -63
leaf_value=-0.010210362384716671 -0.17543927729129793 0.051448996556920916 -0.17547184498441654 0.064881348793268012 0.16813173082249225 -0.17148000223831561 0.10854189413153476 -0.033368322053996466 -0.13364398162956387 -0.066847430305047473 0.15976889210862 -0.17575657289279134 0.093641296905927929 0.019124342841761455 0.27662947552263245 0.15981157531009199 -0.12505216221143675 -0.17662954054016999 -0.013270315722842652 -0.17620808211239902 0.21894148045671202 0.17647272082756491 0.18506218431409727 0.041643440514389014 -0.17543221206854512 0.076809202786535025 -0.17543406524556748 -0.11764544095647962 0.027389185829088093 0.01512347012758255 -0.14706189355306459 -0.082929456055584092 0.075323103656145668 -0.08679424826131793 -0.10837770291849187 0.23970510262093669 0.12015848703470307 0.21456845549000053 0.14773535087461706 -0.024080583965638655 0.22014803562577315 0.16662608071377405 0.26543527911949866 -0.17544462377742187 -0.050990038369871815 0.25657764078496575 -0.014011436532850245 -0.17466276991214291 -0.046977066589447315 0.10705002600496466 0.14483886774402957 0.18649479529750881 0.056123063173622659 0.13686626600367682 -0.17490497121877466 0.22566184183158497 -0.16383605664105794 0.20756623453481071 -0.11626059517170056 0.036419997856258608 0.084784323899753836 0.21452846754839477
leaf_weight=75 36 248 1486 279 121 795 311 145 129 22 385 304 147 35 605 569 77 138 211 33 334 359 242 180 151 80 94 38 60 22 627 142 44 49 95 417 562 273 138 200 254 114 271 59 260 455 112 701 168 88 362 670 78 280 4084 202 76 319 237 96 151 547
leaf_count=75 36 248 1486 279 121 795 311 145 129 22 385 304 147 35 605 569 77 138 211 33 334 359 242 180 151 80 94 38 60 22 627 142 44 49 95 417 562 273 138 200 254 114 271 59 260 455 112 701 168 88 362 670 78 280 4084 202 76 319 237 96 151 547
internal_value=-4.41182e-10 -0.0675891 0.0925234 0.0253093 0.148879 0.0145891 0.0476194 -0.0062099 -0.133287 -0.0911355 0.119531 -0.0789188 -0.0194579 0.196315 0.222199 0.153142 0.0567268 -0.0304469 -0.0591336 -0.111842 0.213517 0.159701 0.166211 0.0324787 -0.0896175 -0.0446259 -0.10211 0.08804 0.0354475 -0.172661 -0.131179 -0.119058 -0.124627 -0.0792322 -0.0306873 0.247731 0.10182 0.182505 0.121716 -0.0620283 0.182051 0.12552 0.239768 -0.0547683 -0.0740083 0.23541 -0.0525404 -0.171382 -0.069156 0.0747551 0.128066 0.174241 0.131616 0.119274 -0.173642 0.203533 -0.133636 0.191102 -0.138613 0.00226802 0.061324 0.225419
internal_weight=19842 11466 8376 3820 4556 1609 4164 2813 7302 1679 1134 3067 1093 814 2947 2334 524 956 708 1974 778 1351 923 476 569 249 169 447 186 4235 1422 1118 320 169 570 2024 841 658 173 552 1493 261 605 519 319 1419 254 723 263 148 673 1239 479 358 4213 444 125 678 864 307 331 964
internal_count=19842 11466 8376 3820 4556 1609 4164 2813 7302 1679 1134 3067 1093 814 2947 2334 524 956 708 1974 778 1351 923 476 569 249 169 447 186 4235 1422 1118 320 169 570 2024 841 658 173 552 1493 261 605 519 319 1419 254 723 263 148 673 1239 479 358 4213 444 125 678 864 307 331 964
is_linear=0
shrinkage=0.05


Tree=3
num_leaves=63
num_cat=0
split_feature=9 4 8 4 4 4 6 8 4 5 4 4 7 4 7 4 7 7 7 5 5 7 4 4 4 7 7 7 7 7 7 5 5 7 5 8 6 7 9 7 7 5 6 5 7 5 7 4 7 7 7 7 7 7 5 4 4 4 7 7 4 8
split_gain=44794.1 23419.4 15134.1 11453.6 35394.4 16119.7 20136.9 5564.71 4165.52 11809.8 3297.14 2382.02 2219.66 1907.36 1783.46 1397.13 1692.61 1378.03 915.899 789.071 672.942 641.075 569.353 606.296 410.564 406.675 388.726 354.374 308.708 217.617 199.102 195.568 157.439 155.622 131.711 129.127 126.826 125.981 114.155 128.563 113.59 106.011 105.841 90.2636 89.5573 80.6031 76.3097 76.0163 66.1044 62.2742 59.8796 59.6187 59.4766 57.7452 54.4731 49.2553 45.529 44.6857 43.6752 43.6107 41.9484 40.853
threshold=7.5000000000000009 34.500000000000007 139.50000000000003 27.500000000000004 34.500000000000007 12.500000000000002 1.0000000180025095e-35 5.166666666666667 41.500000000000007 91.500000000000014 39.500000000000007 27.500000000000004 1023.8750000000001 8.0000000000000018 8.1250000000000018 12.500000000000002 10.875000000000002 578.37500000000011 502.12500000000006 1332.5000000000002 1.5000000000000002 20.875000000000004 9.5000000000000018 8.0000000000000018 1.5000000000000002 3951.6250000000005 197.25000000000003 4.8750000000000009 154.37500000000003 1725.7500000000002 149.62500000000003 33.500000000000007 489.50000000000006 2.3750000000000004 1957.5000000000002 2550.0000000000005 3352.0000000000005 37.375000000000007 2.5000000000000004 255.62500000000003 74.375000000000014 4828.5000000000009 30.500000000000004 206.50000000000003 2184.0000000000005 40.500000000000007 531.62500000000011 20.500000000000004 63.875000000000007 4960.7500000000009 446.87500000000006 9127.6250000000018 99.625000000000014 118.62500000000001 680.00000000000011 42.500000000000007 20.500000000000004 42.500000000000007 3.8750000000000004 74.375000000000014 20.500000000000004 0.096043639483926344
decision_type=2 2 2 2 2 2 2 2 2 2 2 2 2 2 2 2 2 2 2 2 2 2 2 2 2 2 2 2 2 2 2 2 2 2 2 2 2 2 2 2 2 2 2 2 2 2 2 2 2 2 2 2 2 2 2 2 2 2 2 2 2 2
left_child=1 7 8 5 -5 6 13 11 10 14 27 15 28 -2 33 22 -17 30 43 32 26 58 23 24 61 44 48 -3 37 34 59 42 -4 -10 -19 55 -20 -7 39 45 -23 49 -16 -11 60 -29 -28 -22 -18 -31 -30 56 -40 -9 -32 -21 -27 -37 -15 -6 -14 -1
right_child=3 2 19 4 17 12 -8 53 9 18 -12 -13 25 21 31 16 20 29 36 35 47 40 -24 -25 -26 51 46 38 50 41 54 -33 -34 -35 -36 57 -38 -39 52 -41 -42 -43 -44 -45 -46 -47 -48 -49 -50 -51 -52 -53 -54 -55 -56 -57 -58 -59 -60 -61 -62 -63
leaf_value=-0.039225235477436421 -0.16666730940341951 -0.084215902013764277 0.071277767429402214 -0.16669825487149678 -0.00032061602406290566 -0.054559018817685906 -0.16674804604189825 -0.1425881684517534 -0.14327349465295494 0.04792444041119201 -0.1671066775950191 -0.16696889146368332 0.20804084774794851 0.050946145763863693 -0.057164912087935116 -0.13082740389415246 0.02192156429641769 0.13183219796065659 0.16314425227934856 0.17024012863339477 -0.15871054066552059 0.20079915277335958 -0.16666150539041424 0.072968742219090929 -0.16666260017289058 0.26163960070495146 0.11773729466199877 -0.02642233992922299 0.12409645759477848 0.16771617612765946 0.087215875751442393 0.0057249581548303626 0.12118835806530415 -0.10083997191774637 0.17834368410153628 0.20667496617771525 0.21588202056131867 0.080152863353490839 0.011492472943898879 -0.13430574252270164 0.24523095320910215 0.22094752835911635 -0.01026493823691977 0.10110114625055495 0.22470178763683024 0.028262526672942757 0.17831556636295964 -0.031871608261107687 0.073689941469002776 0.19771916805429662 0.15858469320221183 0.27267094470560549 0.073010333115929998 -0.16595444824976952 0.12868249118328096 0.13544951139144529 0.23776430938534157 0.17553919898836237 0.12565090862166792 0.052254109012604771 0.17856137655219254 0.036072686506855876
leaf_weight=43 36 155 272 1486 59 21 787 283 581 176 926 319 314 23 444 124 109 489 456 201 27 230 139 80 90 332 125 182 205 655 297 285 377 344 221 233 152 100 95 21 384 151 165 146 650 107 89 21 142 235 326 320 67 4025 108 206 501 228 131 119 196 31
leaf_count=43 36 155 272 1486 59 21 787 283 581 176 926 319 314 23 444 124 109 489 456 201 27 230 139 80 90 332 125 182 205 655 297 285 377 344 221 233 152 100 95 21 384 151 165 146 650 107 89 21 142 235 326 320 67 4025 108 206 501 228 131 119 196 31
internal_value=6.13083e-10 -0.0642096 0.00618453 0.0878972 0.0240439 0.141435 0.0130445 -0.136748 -0.0416985 -0.00471839 -0.107158 -0.0477192 0.210329 0.189035 -0.0788203 -0.0104244 0.0349507 0.145485 0.140219 0.141974 0.0750218 0.205709 -0.0858917 -0.0398794 -0.0949272 0.233298 0.0934208 -0.0186207 0.128847 0.167653 0.0789025 -0.0284601 0.100271 -0.127493 0.14631 0.173156 0.176329 0.0567731 0.00292009 -0.0148555 0.228587 0.182211 -0.044458 0.0720356 0.212396 -0.00617569 0.142931 -0.103219 0.0512089 0.175638 0.14527 0.254327 0.036935 -0.164419 0.0982736 0.152631 0.24728 0.191276 0.114494 0.0348277 0.196711 -0.00768151
internal_weight=19842 11466 5819 8376 3820 4556 1591 5647 4302 2749 1553 1339 2965 804 1819 1020 637 2334 930 1517 513 768 383 244 164 2313 465 627 652 1751 583 894 649 925 710 868 608 121 472 310 614 1041 609 322 1160 289 214 48 251 890 531 1153 162 4308 405 407 833 461 154 178 510 74
internal_count=19842 11466 5819 8376 3820 4556 1591 5647 4302 2749 1553 1339 2965 804 1819 1020 637 2334 930 1517 513 768 383 244 164 2313 465 627 652 1751 583 894 649 925 710 868 608 121 472 310 614 1041 609 322 1160 289 214 48 251 890 531 1153 162 4308 405 407 833 461 154 178 510 74
is_linear=0
shrinkage=0.05


Tree=4
num_leaves=63
num_cat=0
split_feature=8 10 0 0 4 4 4 5 0 6 0 4 4 4 4 4 4 4 4 4 7 4 8 7 7 4 4 7 10 7 7 5 4 4 7 10 8 4 4 6 4 4 7 7 5 7 7 0 7 5 4 4 0 7 10 0 5 7 10 5 4 7
split_gain=25326.2 25084.4 5620.01 5109.21 16952 14227.9 28322.1 11186 4331.34 4280.95 3540.74 3251.69 17072.1 2378.57 2171.85 3666.22 3398.25 1834.83 1173.85 1095.06 1086.02 953.602 943.467 760.21 742.679 589.126 1643 516.166 425.762 355.766 326.254 289.43 272.094 249.542 185.69 185.28 183.667 170.032 178.998 166.19 146.048 142.834 136.094 131.983 109.594 106.354 97.7675 96.3895 91.5443 91.2896 90.3749 82.1745 81.0973 80.0687 74.0806 68.9631 64.8986 62.5702 61.5111 57.6175 56.3386 55.1847
threshold=4956.0000000000009 14.875000000000002 17.500000000000004 6.5000000000000009 9.5000000000000018 27.500000000000004 34.500000000000007 86.500000000000014 3.5000000000000004 53.500000000000007 16.500000000000004 39.500000000000007 41.500000000000007 14.500000000000002 12.500000000000002 27.500000000000004 41.500000000000007 12.500000000000002 9.5000000000000018 34.500000000000007 50.375000000000007 8.0000000000000018 -0.99728629079769049 8.1250000000000018 1661.6250000000002 34.500000000000007 39.500000000000007 1023.8750000000001 51.875000000000007 175.12500000000003 37.375000000000007 1.5000000000000002 39.500000000000007 1.5000000000000002 5608.6250000000009 0.87500000000000011 -0.99949173996719221 39.500000000000007 41.500000000000007 2378.5000000000005 1.5000000000000002 1.5000000000000002 9.6250000000000018 531.62500000000011 1032.5000000000002 246.25000000000003 2.3750000000000004 11.500000000000002 378.75000000000006 3250.5000000000005 39.500000000000007 46.500000000000007 10.500000000000002 1661.6250000000002 1.1250000000000002 5.5000000000000009 2992.0000000000005 99.625000000000014 5.6250000000000009 269.00000000000006 12.500000000000002 446.87500000000006
decision_type=2 2 2 2 2 2 2 2 2 2 2 2 2 2 2 2 2 2 2 2 2 2 2 2 2 2 2 2 2 2 2 2 2 2 2 2 2 2 2 2 2 2 2 2 2 2 2 2 2 2 2 2 2 2 2 2 2 2 2 2 2 2
left_child=1 9 -2 4 8 7 -7 24 40 10 13 28 -13 17 41 22 25 18 21 54 32 33 36 35 43 -17 47 48 44 51 -10 -24 -12 -1 -26 46 -16 52 -39 -29 -3 -11 -34 -5 53 -19 -21 -27 -14 -30 -22 -18 -25 -8 -15 -40 -41 -32 -23 -49 -6 -31
right_child=2 3 -4 5 60 6 11 -9 30 14 20 12 27 19 15 16 29 45 -20 23 50 58 31 37 34 26 -28 39 49 61 57 -33 42 -35 -36 -37 -38 38 55 56 -42 -43 -44 -45 -46 -47 -48 59 -50 -51 -52 -53 -54 -55 -56 -57 -58 -59 -60 -61 -62 -63
leaf_value=0.0083408189006149765 -0.15843330621719362 -0.014805340098047799 0.20188174469281087 0.11706552099723083 -0.15868468529671328 -0.158345250679397 0.10199815897544225 -0.15846936090276875 0.14156993574462831 -0.024179835786873646 0.034836666125101175 -0.15844444319223749 0.067387168357878197 -0.11706599224009551 0.1750362777381862 -0.15832190679949384 0.036480632469149135 0.083202283488689147 -0.16010312737547203 -0.13534680620954712 0.082685932515267568 0.053781862170517183 0.045594931666843821 -0.055591418439871636 0.21705842802294861 -0.05295531727049662 -0.15868186679753393 0.14342942701803671 0.16528929337351161 0.08545250777878162 0.20437747164076547 -0.10048687440547638 -0.098418051944329191 -0.15911483780978478 0.24883146923716351 -0.064928411442456369 0.1167914504639241 -0.15848462608727543 -0.13241017927294194 0.17101241087866673 -0.15851783845159742 -0.15854141474986563 -0.039091151053782566 0.17588572653645246 0.15328180021133975 0.15760508179664612 -0.099074287756400953 0.035865952917752235 0.11401346027664375 0.19588409537604284 0.036324361362759114 -0.024016042173826607 0.010945331478586872 0.14511930200437836 -0.1530678399409095 -0.041842066655584355 0.21336477919058369 0.23831378527589747 0.12230172268562503 0.099233902063009874 -0.093063608929514888 0.13557084833466732
leaf_weight=32 2559 22 113 130 861 1322 375 218 160 22 103 624 143 160 218 301 301 118 197 586 261 57 196 64 1204 23 220 740 704 152 251 41 130 73 744 158 357 44 23 509 90 196 377 358 276 81 272 111 399 373 176 69 161 151 1336 244 110 296 77 53 34 86
leaf_count=32 2559 22 113 130 861 1322 375 218 160 22 103 624 143 160 218 301 301 118 197 586 261 57 196 64 1204 23 220 740 704 152 251 41 130 73 744 158 357 44 23 509 90 196 377 358 276 81 272 111 399 373 176 69 161 151 1336 244 110 296 77 53 34 86
internal_value=-7.44616e-10 0.0222841 -0.143195 0.072884 -0.00577199 0.0889718 0.0446168 0.184668 0.158606 -0.0498972 -0.0772864 0.105542 0.0684799 -0.100352 0.00532485 0.0207228 -0.030829 -0.0123183 -0.0697385 -0.118692 0.00384965 0.00474612 0.104272 -0.089268 0.215375 -0.105286 -0.0660626 0.142967 0.155347 0.0558741 0.204372 0.0203234 -0.0392517 -0.108081 0.229194 -0.114685 0.138874 -0.0410893 -0.0650425 0.159421 -0.130289 -0.144982 -0.0543032 0.160216 0.127766 0.113487 -0.123848 0.0429013 0.101712 0.175885 0.064014 0.0251988 -0.00798068 0.114377 -0.149217 -0.0496438 0.178539 0.222742 0.0931552 0.0563446 -0.156192 0.103562
internal_weight=19842 17170 2672 10094 1714 8380 5726 2654 819 7076 4730 4404 2525 3683 2346 2128 1316 635 436 3048 1047 239 812 1552 2436 708 407 1901 1879 608 707 237 610 105 1948 1016 575 536 311 1359 112 218 507 488 802 199 858 187 542 1077 437 370 225 526 1496 267 619 547 134 164 895 238
internal_count=19842 17170 2672 10094 1714 8380 5726 2654 819 7076 4730 4404 2525 3683 2346 2128 1316 635 436 3048 1047 239 812 1552 2436 708 407 1901 1879 608 707 237 610 105 1948 1016 575 536 311 1359 112 218 507 488 802 199 858 187 542 1077 437 370 225 526 1496 267 619 547 134 164 895 238
is_linear=0
shrinkage=0.05


Tree=5
num_leaves=63
num_cat=0
split_feature=9 0 4 4 0 6 0 4 9 4 5 0 4 0 10 5 10 5 4 9 4 4 6 6 10 4 4 5 4 5 6 4 4 6 4 10 4 10 5 5 5 0 4 4 9 5 0 10 6 5 10 4 10 5 10 0 6 5 5 6 4 10
split_gain=36488.4 25605.3 9354.92 28811.1 13187.4 15991.1 6143.5 10926 4484.36 2328.16 1776.79 1530.97 1365.22 1900.87 1249.05 1115.69 1032.13 908.415 810.854 565.097 347.598 469.048 346.217 301.365 271.756 270.048 268.739 263.29 398.28 249.343 215.539 199.787 442.897 189.549 173.751 172.434 149.099 143.786 139.605 135.167 130.199 127.973 124.172 195.18 101.809 99.9823 97.5889 95.6336 91.1931 87.0067 79.8065 71.9737 71.9247 70.6986 67.9134 64.6118 62.8205 51.3254 50.2581 49.572 45.9891 44.7551
threshold=7.5000000000000009 16.500000000000004 27.500000000000004 34.500000000000007 6.5000000000000009 1.0000000180025095e-35 21.500000000000004 39.500000000000007 1.0000000180025095e-35 41.500000000000007 297.50000000000006 3.5000000000000004 27.500000000000004 6.5000000000000009 25.375000000000004 253.50000000000003 38.125000000000007 511.50000000000006 34.500000000000007 33.500000000000007 9.5000000000000018 8.0000000000000018 2148.5000000000005 1754.5000000000002 5.3750000000000009 46.500000000000007 1.5000000000000002 4.5000000000000009 34.500000000000007 60.500000000000007 13719.000000000002 12.500000000000002 14.500000000000002 198.50000000000003 1.5000000000000002 11.875000000000002 14.500000000000002 8.3750000000000018 2112.0000000000005 4208.0000000000009 2475.0000000000005 8.5000000000000018 39.500000000000007 41.500000000000007 107.50000000000001 27.500000000000004 8.5000000000000018 79.875000000000014 769.00000000000011 86.500000000000014 1.6250000000000002 41.500000000000007 79.875000000000014 6.5000000000000009 9.6250000000000018 9.5000000000000018 517.00000000000011 187.50000000000003 25.500000000000004 16.500000000000004 16.500000000000004 0.87500000000000011
decision_type=2 2 2 2 2 2 2 2 2 2 2 2 2 2 2 2 2 2 2 2 2 2 2 2 2 2 2 2 2 2 2 2 2 2 2 2 2 2 2 2 2 2 2 2 2 2 2 2 2 2 2 2 2 2 2 2 2 2 2 2 2 2
left_child=1 8 4 -4 5 11 7 17 15 -9 29 -2 13 20 22 27 35 57 -14 37 21 -10 54 40 33 49 -17 34 50 -8 47 -22 -33 36 -1 -5 -15 -13 -19 52 48 -38 58 -44 -21 -45 -20 -16 -12 -11 55 -48 -18 -27 56 60 -6 -3 -30 -53 -29 -28
right_child=2 6 3 16 14 -7 10 9 12 25 23 19 18 24 30 26 39 38 46 44 31 -23 -24 -25 -26 53 61 28 42 -31 -32 32 -34 -35 -36 -37 41 -39 -40 -41 -42 -43 43 45 -46 -47 51 -49 -50 -51 -52 59 -54 -55 -56 -57 -58 -59 -60 -61 -62 -63
leaf_value=0.014950851124265922 -0.15040391054418353 0.037619223897025225 -0.15046786164531478 0.049540304913663569 0.067270426894977406 -0.14690904803246072 -0.028936675955573549 -0.15092519012619468 -0.15037036296483633 -0.0055336341476605114 0.10429057649397684 0.012916429936885835 -0.15095408379834874 0.080259293292103143 0.19261374130279205 -0.019169209611136467 0.13711735658360522 0.13471926565788969 -0.082654821643929774 0.18211803269940754 -0.1503773246750687 0.064920495564583694 0.17769549227122106 0.18017765024129084 0.13666131439117285 -0.09392686354976737 -0.10238612669706344 -0.11729388761405762 -0.043858075477144064 0.050497842946300102 0.23688096559731064 0.068995562230431767 -0.12348366387530554 0.092659872448811798 -0.12447406610960415 0.10061292527410073 -0.083766758764783553 0.12638560919010119 0.18250598561119391 0.1946195352559138 0.15758923942169534 0.024927747824831922 -0.1510490984213157 -0.067635308418037568 0.22359109017622233 0.0008363358815436933 -0.0029965355539433207 0.22064708112073794 0.14211206688229736 0.055784978222722804 -0.14711159086504649 -0.09743259958056516 0.16082529539351345 -0.040073597786181116 0.13186422637806819 -0.15190246881440628 0.11931444862857461 0.080266111897766057 0.014420914335482538 -0.021510373055934909 -0.05627085737589943 -0.14998273392498701
leaf_weight=23 36 200 1486 226 106 795 145 850 37 253 535 35 303 58 948 40 577 316 92 258 132 80 396 340 130 95 50 52 75 310 628 43 98 146 785 615 45 138 296 198 243 68 61 261 347 67 164 448 227 75 172 43 718 170 293 43 128 109 73 43 76 4042
leaf_count=23 36 200 1486 226 106 795 145 850 37 253 535 35 303 58 948 40 577 316 92 258 132 80 396 340 130 95 50 52 75 310 628 43 98 146 785 615 45 138 296 198 243 68 61 261 347 67 164 448 227 75 172 43 718 170 293 43 128 109 73 43 76 4042
internal_value=9.77859e-10 -0.0579518 0.0793309 0.0216235 0.127716 0.0125908 0.0409932 -0.0120018 -0.114376 -0.0978781 0.110593 0.168368 -0.0367266 0.0054008 0.190572 -0.134148 0.13119 0.122547 -0.0913943 0.183118 -0.0752678 -0.00316294 0.142369 0.139487 0.0757829 -0.021841 -0.14814 -0.0998972 -0.0809753 0.0251835 0.212554 -0.10617 -0.0647843 0.0508169 -0.120505 0.0868883 0.0150914 0.103429 0.157832 0.156145 0.12572 -0.0183577 -0.054092 -0.0689223 0.205905 -0.0536487 -0.0386264 0.20161 0.115558 0.00848739 -0.123064 -0.0224239 0.150262 -0.0593795 0.115824 -0.0988753 0.095739 0.0526629 -0.0151124 -0.0594715 -0.0810615 -0.149401
internal_weight=19842 11466 8376 3820 4556 1609 4164 2364 7302 1443 1800 814 1482 837 2947 5820 2334 921 645 778 390 117 923 1345 447 593 4132 1688 880 455 2024 273 141 317 808 841 171 173 612 1493 1005 113 537 389 605 328 342 1396 762 328 343 250 1295 265 527 171 234 309 148 86 128 4092
internal_count=19842 11466 8376 3820 4556 1609 4164 2364 7302 1443 1800 814 1482 837 2947 5820 2334 921 645 778 390 117 923 1345 447 593 4132 1688 880 455 2024 273 141 317 808 841 171 173 612 1493 1005 113 537 389 605 328 342 1396 762 328 343 250 1295 265 527 171 234 309 148 86 128 4092
is_linear=0
shrinkage=0.05


Tree=6
num_leaves=63
num_cat=0
split_feature=9 0 0 0 0 6 8 0 8 5 7 0 7 7 7 9 0 0 7 7 6 5 7 7 8 0 9 10 7 7 7 10 5 7 7 10 7 10 7 7 9 10 0 10 7 0 8 7 5 8 5 10 7 7 10 0 0 5 6 0 0 7
split_gain=32930.8 23108.7 8302.76 25779.7 11812.9 14404.9 6664.39 8069.28 4126.17 2524.79 1698.16 1378.23 1196.49 970.928 922.89 662.609 693.583 831.088 849.848 615.02 471.063 371.2 323.463 208.444 186.924 186.385 184.697 240.304 153.87 151.852 151.003 150.144 145.163 139.1 135.464 126.033 118.326 115.792 114.887 106.967 104.384 102.416 97.9156 87.1752 115.806 90.1318 73.2836 71.3499 67.445 67.1517 65.229 62.8464 58.9857 56.5436 50.8151 50.0289 48.0405 47.9012 47.1701 46.1246 45.1144 40.4411
threshold=7.5000000000000009 16.500000000000004 13.500000000000002 16.500000000000004 6.5000000000000009 1.0000000180025095e-35 296.50000000000006 22.500000000000004 97.250000000000014 297.50000000000006 1457.8750000000002 3.5000000000000004 3.1250000000000004 665.25000000000011 318.87500000000006 1.0000000180025095e-35 13.500000000000002 6.5000000000000009 168.62500000000003 17.375000000000004 1.0000000180025095e-35 1880.5000000000002 246.25000000000003 3951.6250000000005 -0.99114974937343348 20.500000000000004 1.0000000180025095e-35 1.8750000000000002 10.875000000000002 31.875000000000004 189.62500000000003 79.875000000000014 60.500000000000007 175.12500000000003 1837.5000000000002 7.8750000000000009 564.62500000000011 8.3750000000000018 34.375000000000007 34.375000000000007 86.500000000000014 1.3750000000000002 11.500000000000002 4.3750000000000009 1.0000000180025095e-35 1.0000000180025095e-35 -0.74505649717514111 37.375000000000007 5220.0000000000009 -1.0000000180025095e-35 910.50000000000011 2.1250000000000004 852.12500000000011 4.8750000000000009 0.87500000000000011 14.500000000000002 9.5000000000000018 33.500000000000007 21053.500000000004 21.500000000000004 9.5000000000000018 4960.7500000000009
decision_type=2 2 2 2 2 2 2 2 2 2 2 2 2 2 2 2 2 2 2 2 2 2 2 2 2 2 2 2 2 2 2 2 2 2 2 2 2 2 2 2 2 2 2 2 2 2 2 2 2 2 2 2 2 2 2 2 2 2 2 2 2 2
left_child=1 8 4 -4 5 11 7 9 12 20 22 -2 43 30 32 46 17 33 29 37 28 50 38 60 -18 26 27 53 -3 -19 -5 -15 -9 49 -16 -11 56 -13 -6 -27 -21 -10 54 45 -45 -1 -14 -28 61 -17 -8 -51 -24 -22 -31 -48 -20 -26 -25 -23 -12 -33
right_child=2 6 3 13 10 -7 21 14 41 35 23 19 15 31 34 16 24 18 36 40 25 59 52 58 57 39 47 -29 -30 42 -32 48 -34 -35 -36 -37 -38 -39 -40 -41 -42 -43 -44 44 -46 -47 55 -49 -50 51 -52 -53 -54 -55 -56 -57 -58 -59 -60 -61 -62 -63
leaf_value=-0.018278981208801271 -0.14288371172216205 -0.091876317288440021 -0.14000220800023946 0.037687133598629748 -0.04848082903074101 -0.13956359801802246 0.087762691076377783 -0.025169655788873493 -0.098744532117184175 -0.059611547782140617 0.19601665100026511 -0.0094305954997738212 -0.12377723716199399 0.12993104780114137 0.13079068410978831 -0.069486759992044733 -0.13582220784974872 -0.053134308651840295 0.10876151107011303 0.1684976518638735 -0.10267291098106197 0.17012406428419166 0.12447059584445641 0.21265347097791321 -0.061767422924764871 -0.045185640330204148 -0.042432623230016391 -0.13324427267846961 0.033809674943404387 -0.032649280808188699 0.090014930883524261 0.14768981725549615 0.060179548504243709 -0.1198152970908017 0.17698867005198748 -0.14108595366895635 0.15879013105517342 0.10172151413476356 0.07783812017167091 0.025459972724155358 0.20996810537998123 -0.14208540712398149 -0.040009423672107233 -0.10303801455918481 0.022102211479996817 -0.11446695827443472 -0.075786111745457518 0.02634486093708914 0.19411460776482858 -0.056935861729311227 0.11855089422944305 0.036278909314423805 0.1546311227316709 -0.039038715000559103 0.049856942752092265 -0.04475887189127551 0.053228038393739442 0.018795428158981459 0.23565463656621263 0.14357625622794312 0.17377230781799199 0.17410178768266107
leaf_weight=25 36 26 1506 205 20 795 311 71 141 51 563 30 68 787 389 96 108 134 93 246 41 337 366 851 152 88 78 120 384 22 421 573 167 87 268 685 84 107 180 137 396 4094 57 51 29 943 673 73 124 33 385 40 291 235 123 161 67 21 302 318 383 194
leaf_count=25 36 26 1506 205 20 795 311 71 141 51 563 30 68 787 389 96 108 134 93 246 41 337 366 851 152 88 78 120 384 22 421 573 167 87 268 685 84 107 180 137 396 4094 57 51 29 943 673 73 124 33 385 40 291 235 123 161 67 21 302 318 383 194
internal_value=7.02965e-10 -0.0550543 0.0753644 0.0208679 0.120838 0.0118647 0.0389436 -0.00489312 -0.108657 -0.0627413 0.18019 0.159577 -0.0644905 0.12602 0.119077 -0.0419907 -0.0162507 0.00659171 0.0397122 0.173555 -0.0174736 0.130219 0.120881 0.204406 -0.084209 -0.0404765 -0.0562332 -0.0741742 0.0258393 -0.0118643 0.0728788 0.145845 0.0347182 -0.0684468 0.149636 -0.13544 0.110736 0.0773816 0.0652062 -0.00217031 0.194078 -0.140642 0.0155128 -0.107837 -0.0576747 -0.111983 -0.0738659 -0.00918258 0.159901 -0.0420027 0.104794 -0.00585927 0.137829 -0.0484916 0.0373388 -0.0697964 0.0855069 -0.0519881 0.218678 0.157235 0.187011 0.15437
internal_weight=19842 11466 8376 3810 4566 1610 4164 2813 7302 1918 2956 815 3067 2304 895 2019 1117 836 580 779 1182 1351 857 2099 281 772 547 396 410 336 626 1678 238 256 657 736 244 137 200 225 642 4235 202 1048 80 968 902 151 891 169 696 73 657 276 145 834 160 173 1153 655 946 767
internal_count=19842 11466 8376 3810 4566 1610 4164 2813 7302 1918 2956 815 3067 2304 895 2019 1117 836 580 779 1182 1351 857 2099 281 772 547 396 410 336 626 1678 238 256 657 736 244 137 200 225 642 4235 202 1048 80 968 902 151 891 169 696 73 657 276 145 834 160 173 1153 655 946 767
is_linear=0
shrinkage=0.05


Tree=7
num_leaves=63
num_cat=0
split_feature=0 5 4 0 4 4 0 4 7 7 4 4 10 7 4 7 4 4 5 4 10 7 7 7 7 5 7 7 7 0 10 4 4 7 6 7 7 7 7 0 7 7 5 4 4 0 5 7 10 7 5 5 0 5 5 6 0 7 6 5 7 5
split_gain=16955.9 29729.2 31641 13364.8 11974.2 4396.81 13445.1 3791.6 3033.42 2299.55 1532.56 1323.8 1117 598.112 591.527 548.185 492.738 648.742 478.47 456.48 415.608 393.902 332.678 297.928 236.691 213.085 173.465 141.36 134.177 130.08 109.313 107.41 203.528 95.4537 84.3049 83.1782 80.5724 79.6084 78.2568 71.8167 67.7755 64.9921 60.4416 57.6859 52.5016 93.8721 49.3898 49.0618 48.102 47.1948 46.4598 43.4205 45.7994 40.7782 40.7359 39.3788 39.2912 39.2129 39.1085 30.9333 30.7699 30.2217
threshold=16.500000000000004 1.0000000180025095e-35 27.500000000000004 6.5000000000000009 9.5000000000000018 39.500000000000007 20.500000000000004 8.0000000000000018 793.75000000000011 332.37500000000006 41.500000000000007 34.500000000000007 23.875000000000004 20.875000000000004 34.500000000000007 63.875000000000007 12.500000000000002 14.500000000000002 7.5000000000000009 1.5000000000000002 0.37500000000000006 2744.6250000000005 70.875000000000014 1725.7500000000002 31.875000000000004 2556.0000000000005 129.37500000000003 10.875000000000002 246.25000000000003 9.5000000000000018 1.1250000000000002 39.500000000000007 41.500000000000007 3427.7500000000005 815.50000000000011 74.375000000000014 6641.5000000000009 15.625000000000002 74.375000000000014 22.500000000000004 4.8750000000000009 154.37500000000003 129.50000000000003 20.500000000000004 16.500000000000004 8.5000000000000018 1386.5000000000002 3.8750000000000004 3.6250000000000004 189.62500000000003 6423.5000000000009 25.500000000000004 8.5000000000000018 613.50000000000011 27.500000000000004 5664.5000000000009 10.500000000000002 133.87500000000003 33.500000000000007 3504.0000000000005 3641.0000000000005 369.50000000000006
decision_type=2 2 2 2 2 2 2 2 2 2 2 2 2 2 2 2 2 2 2 2 2 2 2 2 2 2 2 2 2 2 2 2 2 2 2 2 2 2 2 2 2 2 2 2 2 2 2 2 2 2 2 2 2 2 2 2 2 2 2 2 2 2
left_child=1 2 3 4 7 12 10 -1 15 22 -7 19 26 48 -4 27 -6 41 -13 -3 -16 43 37 34 40 33 42 -5 -17 -22 44 51 -33 46 -11 -31 56 -8 -15 55 -12 -18 -2 -10 -21 58 -14 -19 -9 -26 -27 -20 -53 -28 -34 59 -23 -24 -46 -25 -41 -36
right_child=5 11 14 8 16 6 9 13 21 23 24 18 25 38 20 28 17 47 31 30 29 36 57 39 49 50 53 -29 -30 35 -32 32 54 -35 61 -37 -38 -39 -40 60 -42 -43 -44 -45 45 -47 -48 -49 -50 -51 -52 52 -54 -55 -56 -57 -58 -59 -60 -61 -62 -63
leaf_value=-0.12940609647677495 0.017062696431109563 -0.0039668609482654627 -0.13644446004629804 -0.084741689990984193 -0.13715443419485843 -0.13669127712530249 -0.067657707272754872 0.035797220068600248 0.1711302565558781 0.091773247290364873 -0.098527419325546373 -0.10193602915905429 0.11037484351355119 0.16312188981422063 -0.11757442319330853 0.073052039750644407 0.055314589291810989 -0.13392056686642728 -0.036674621831216329 -0.13336427330970765 -0.081822066315216949 0.20396210263924772 0.030288940924550513 0.12493038998210509 0.0080785207517749674 0.15988412867716659 0.080064282190675545 0.023647705676420681 0.11534596786394224 -0.02716933403148496 -0.13524599653352984 -0.13958654868400705 -0.049585347932573132 0.1542557923597247 0.10817297267563203 0.049683464899659163 0.21764323215758075 -0.0054840938926164831 0.19986598081983278 0.15595578445772237 -0.039818663566641266 0.1677305778861046 0.060368641735391415 0.14519168497810903 5.2335485816001895e-05 -0.11904181188611843 0.13581087303618652 -0.051173633547580769 0.10039741176835917 0.075518056173478398 0.19666588054253506 -0.055401664259641076 0.022499960095932088 0.113865744269739 -0.0065369502450220093 0.16306565617903687 0.18431426711784779 0.060470201327912643 -0.081352328091859827 0.15176196884601675 0.19225660621384044 0.13292351665440946
leaf_weight=130 141 69 1789 42 877 850 68 34 541 493 64 607 489 232 287 319 36 81 91 65 80 502 176 451 159 492 300 106 455 119 4236 59 186 279 238 50 558 212 386 209 212 20 188 355 36 67 313 23 189 31 104 23 105 127 78 117 516 277 25 141 81 256
leaf_count=130 141 69 1789 42 877 850 68 34 541 493 64 607 489 232 287 319 36 81 91 65 80 502 176 451 159 492 300 106 455 119 4236 59 186 279 238 50 558 212 386 209 212 20 188 355 36 67 313 23 189 31 104 23 105 127 78 117 516 277 25 141 81 256
internal_value=-1.84941e-10 -0.0321434 0.0315853 0.0979632 -0.00428341 0.0664634 0.0344522 0.121897 0.158456 0.0979492 -0.0967396 -0.119346 0.119552 0.160743 -0.12264 0.0810559 -0.122433 -0.0417414 -0.0714471 -0.131581 -0.0765646 0.187324 0.0222616 0.125884 -0.0238665 0.142299 0.0690944 -0.00711145 0.0979147 -0.0292962 -0.133569 -0.0373017 -0.0556296 0.129065 0.106401 -0.00443182 0.202373 -0.0205834 0.186072 0.145133 -0.0534323 0.0954632 0.041809 0.160853 -0.0967689 -0.0781854 0.120302 -0.115621 0.0905481 0.0190818 0.166302 -0.01027 0.00850201 0.0901176 -0.0368665 0.13656 0.194003 0.0487441 -0.0333102 0.131321 0.166095 0.120999
internal_weight=19842 13374 7727 5402 2008 6468 4035 971 3394 2719 1316 5647 2433 841 2325 922 1037 160 1149 4498 536 2472 733 1986 466 1677 756 148 774 249 4429 542 323 1081 987 169 1576 280 618 999 276 56 329 896 193 128 802 104 223 190 596 219 128 427 264 709 1018 453 61 592 290 494
internal_count=19842 13374 7727 5402 2008 6468 4035 971 3394 2719 1316 5647 2433 841 2325 922 1037 160 1149 4498 536 2472 733 1986 466 1677 756 148 774 249 4429 542 323 1081 987 169 1576 280 618 999 276 56 329 896 193 128 802 104 223 190 596 219 128 427 264 709 1018 453 61 592 290 494
is_linear=0
shrinkage=0.05


Tree=8
num_leaves=63
num_cat=0
split_feature=9 0 4 4 0 8 8 0 8 5 4 0 0 10 10 5 5 5 9 4 8 4 4 8 4 4 0 4 4 4 4 4 9 4 4 8 5 10 4 5 4 10 9 10 10 5 10 4 4 5 5 4 8 10 10 8 8 0 8 8 5 5
split_gain=26828.7 18837.1 6888.4 21211.9 9694.6 11574 5435.42 6824.2 3352.03 1881.55 1331.08 1307.27 1280.97 929.744 770.97 747.448 647.436 433.847 425.83 424.542 364.945 323.552 611.876 253.799 252.882 208.757 259.429 204.461 392.648 274.049 197.294 184.589 352.158 175.876 342.972 160.213 144.897 128.022 119.043 102.191 100.322 95.3763 90.5557 80.8472 80.0633 78.3117 72.4071 72.3917 178.468 69.302 62.0659 55.6374 91.2238 52.2467 52.1199 50.86 47.0743 42.9528 42.66 42.406 39.3243 38.9353
threshold=7.5000000000000009 16.500000000000004 27.500000000000004 34.500000000000007 6.5000000000000009 -1.0000000180025095e-35 222.50000000000003 22.500000000000004 97.250000000000014 283.50000000000006 27.500000000000004 3.5000000000000004 6.5000000000000009 25.375000000000004 38.125000000000007 206.50000000000003 21.500000000000004 7.5000000000000009 28.500000000000004 43.500000000000007 1792.5000000000002 39.500000000000007 41.500000000000007 -0.99945130311370789 46.500000000000007 18.500000000000004 8.5000000000000018 9.5000000000000018 8.0000000000000018 1.5000000000000002 32.500000000000007 34.500000000000007 1.0000000180025095e-35 12.500000000000002 14.500000000000002 -0.99992927864179604 1083.5000000000002 11.875000000000002 34.500000000000007 3572.5000000000005 46.500000000000007 8.3750000000000018 135.50000000000003 1.3750000000000002 5.6250000000000009 703.50000000000011 59.375000000000007 39.500000000000007 41.500000000000007 23.500000000000004 56.500000000000007 16.500000000000004 -0.99689437998514696 1.3750000000000002 117.87500000000001 -0.30939153439153433 -0.99538103771974729 8.5000000000000018 3557.0000000000005 -0.99974302957401739 2.5000000000000004 3572.5000000000005
decision_type=2 2 2 2 2 2 2 2 2 2 2 2 2 2 2 2 2 2 2 2 2 2 2 2 2 2 2 2 2 2 2 2 2 2 2 2 2 2 2 2 2 2 2 2 2 2 2 2 2 2 2 2 2 2 2 2 2 2 2 2 2 2
left_child=1 8 4 -4 5 -2 7 9 10 21 12 -7 27 23 37 40 25 31 41 -11 45 -3 -23 59 50 44 -27 28 29 -1 53 -12 60 -29 -35 -15 -17 -5 -19 54 -9 -13 -20 -34 -14 -8 -37 -40 -49 -26 -24 -25 -53 -10 -16 -36 -28 -48 -22 -6 -33 -38
right_child=2 6 3 14 13 11 20 15 30 19 17 18 16 35 39 36 -18 38 42 -21 58 22 24 51 49 26 56 33 -30 -31 -32 32 43 34 55 46 61 -39 47 -41 -42 -43 -44 -45 -46 -47 57 48 -50 -51 -52 52 -54 -55 -56 -57 -58 -59 -60 -61 -62 -63
leaf_value=-0.0038975115915139517 -0.12587547935309371 0.034728134901478871 -0.12915675409068009 0.0420489037287472 0.16332774336139363 -0.12933541337649029 0.069121764938439842 0.044136182234439325 -0.096367584642513784 -0.12874504283959262 -0.13194122310531767 0.0097962006021823211 0.069917793528867414 0.20394580764218798 0.12132980610940841 0.10655980034077422 -0.091516906719703195 -0.13725087028561217 0.15869584523856978 0.089470230334478873 0.13113709248456301 -0.13253485501267528 -0.0084461450774688286 0.12591724813230767 -0.065545262813499455 -0.091552917561248726 0.079181850517497349 -0.13161133906699174 0.059278395324945457 -0.13205175285643719 0.022425662252036009 -0.10977416174988333 -0.061297530979311593 0.062698386115318347 -0.030607919598167596 0.1620720448182256 0.14407051423606751 0.08605560884424826 -0.01572918731113896 0.16297743020095223 -0.033972975884699413 0.10378169842948348 0.19710029434014073 -0.0044821170440627611 0.12575142571800632 0.10295031646202352 0.19789128617044618 -0.13260722362388999 -0.036283468737338599 -0.014886408436292671 0.029065609248081117 0.099031814412055955 0.035044770006198385 -0.12868655524513048 0.14355274407569504 -0.11435759614393548 0.022150571319082428 0.17306643932178897 0.15675733522132593 0.13232111656198317 -0.08586582306080856 0.18467116355895996
leaf_weight=75 789 222 1486 226 240 42 271 122 129 721 304 35 147 605 858 329 77 33 354 23 408 131 240 121 217 38 85 151 80 94 22 627 142 44 22 719 309 615 200 254 62 118 271 112 114 464 327 59 260 98 204 289 69 4084 381 103 63 373 270 204 237 73
leaf_count=75 789 222 1486 226 240 42 271 122 129 721 304 35 147 605 858 329 77 33 354 23 408 131 240 121 217 38 85 151 80 94 22 627 142 44 22 719 309 615 200 254 62 118 271 112 114 464 327 59 260 98 204 289 69 4084 381 103 63 373 270 204 237 73
internal_value=6.38806e-11 -0.0496924 0.0680244 0.0185055 0.109544 0.0108352 0.0351741 -0.00576678 -0.0980879 -0.0604524 -0.0582796 0.142377 -0.0140128 0.163437 0.112518 0.107637 0.0423926 -0.0827901 0.157046 -0.121999 0.114883 -0.0192737 -0.0327438 0.121849 -0.0155203 0.0654598 0.0249835 -0.0659573 -0.0319795 -0.0751786 -0.126917 -0.0973945 -0.0880008 -0.0923962 -0.0573579 0.182402 0.130882 0.0742298 -0.0451678 0.134086 0.0178168 0.0822817 0.175348 -0.0362451 0.0943049 0.0904775 0.173216 -0.0393128 -0.0540988 -0.0497847 0.00878899 0.096606 0.0866991 -0.127697 0.128163 -0.0996177 0.054905 0.184663 0.14134 0.149081 -0.103216 0.151829
internal_weight=19842 11466 8376 3820 4556 1609 4164 2751 7302 1856 3067 820 1093 2947 2334 895 524 1974 778 744 1413 1112 890 923 759 447 186 569 249 169 4235 1422 1118 320 169 2024 711 841 552 1493 184 153 625 254 261 735 1419 519 319 315 444 479 358 4213 1239 125 148 700 678 444 864 382
internal_count=19842 11466 8376 3820 4556 1609 4164 2751 7302 1856 3067 820 1093 2947 2334 895 524 1974 778 744 1413 1112 890 923 759 447 186 569 249 169 4235 1422 1118 320 169 2024 711 841 552 1493 184 153 625 254 261 735 1419 519 319 315 444 479 358 4213 1239 125 148 700 678 444 864 382
is_linear=0
shrinkage=0.05


Tree=9
num_leaves=63
num_cat=0
split_feature=9 0 4 4 0 8 8 0 8 7 7 4 0 0 7 7 7 7 8 4 7 8 4 4 7 7 4 4 4 4 8 4 4 7 7 4 9 4 7 4 7 7 0 7 10 8 4 7 0 7 7 7 10 7 8 10 10 7 8 7 0 4
split_gain=24212.9 17000.4 6216.78 19143.8 8749.37 10445.5 4908.99 5951.15 3025.21 1536.07 1205.37 1201.3 1179.81 1156.08 818.652 686.179 658.251 451.348 423.766 361.945 473.641 276.106 270.445 750.975 268.486 204.926 184.526 354.365 247.329 178.057 173.251 158.728 309.532 152.152 148.954 141.888 139.866 139.454 128.423 107.843 106.361 101.634 95.4015 90.4986 90.3159 83.8528 82.0404 80.2102 68.1977 104.194 63.8222 62.1582 58.5773 51.3465 50.383 47.7509 47.4334 47.384 46.2278 45.2253 42.2209 67.6725
threshold=7.5000000000000009 16.500000000000004 27.500000000000004 34.500000000000007 6.5000000000000009 -1.0000000180025095e-35 296.50000000000006 22.500000000000004 97.250000000000014 486.12500000000006 1533.1250000000002 27.500000000000004 3.5000000000000004 6.5000000000000009 517.62500000000011 236.87500000000003 85.625000000000014 17.375000000000004 58.500000000000007 34.500000000000007 3.8750000000000004 1792.5000000000002 41.500000000000007 39.500000000000007 24.875000000000004 378.75000000000006 9.5000000000000018 8.0000000000000018 1.5000000000000002 32.500000000000007 0.15542724966485785 12.500000000000002 14.500000000000002 2084.2500000000005 3951.6250000000005 39.500000000000007 1.0000000180025095e-35 41.500000000000007 923.37500000000011 46.500000000000007 95.125000000000014 531.62500000000011 3.5000000000000004 10.875000000000002 8.3750000000000018 0.018036639927469109 37.500000000000007 74.375000000000014 3.5000000000000004 10.875000000000002 89.875000000000014 4.8750000000000009 10.375000000000002 103.87500000000001 0.15542724966485785 1.1250000000000002 1.6250000000000002 2791.1250000000005 786.50000000000011 56.875000000000007 7.5000000000000009 12.500000000000002
decision_type=2 2 2 2 2 2 2 2 2 2 2 2 2 2 2 2 2 2 2 2 2 2 2 2 2 2 2 2 2 2 2 2 2 2 2 2 2 2 2 2 2 2 2 2 2 2 2 2 2 2 2 2 2 2 2 2 2 2 2 2 2 2
left_child=1 8 4 -4 5 -2 7 9 11 18 25 13 -7 26 40 39 30 44 22 -13 46 58 23 -3 51 59 27 28 -1 56 43 -28 -33 45 -12 42 -18 -37 -17 -9 -5 -38 -22 -15 -14 -16 -21 -19 -39 -50 -26 -24 -11 -44 -35 -34 60 -40 -8 -6 61 -10
right_child=2 6 3 14 10 12 21 15 29 52 34 19 17 16 33 38 36 47 -20 20 35 -23 24 -25 50 -27 31 -29 -30 -31 -32 32 55 54 -36 37 41 48 57 -41 -42 -43 53 -45 -46 -47 -48 -49 49 -51 -52 -53 -54 -55 -56 -57 -58 -59 -60 -61 -62 -63
leaf_value=-0.0037026360730330154 -0.11958170568686173 0.025598595490009757 -0.12269891271841478 0.0027347322134301071 0.0047951513474496707 -0.12286864320437114 0.071800268302876044 0.045309212263739129 -0.13221182369050527 -0.033510010540485378 0.16102371246270511 -0.12583809797417164 -0.010140576117361586 -0.070887327639738457 0.096858705830333111 0.093775677193548082 -0.041055726437341601 0.14487851171160307 0.035909711278043689 -0.055139619335532186 -0.10690482476582895 0.13427285182792528 -0.092279136060057471 -0.12526515506464861 -0.0017344378802834999 0.12246544291841546 -0.12503077241758639 0.056314475256949659 -0.12544916589209373 0.021304378658533098 -0.10921684565409176 0.059563466542485094 -0.056149717667425172 0.13292289068799534 0.18800032683692597 -0.12676413426032435 0.074174342860710132 -0.1272578558096519 0.13019696882641282 -0.034179353223899839 0.062390437873757698 0.13805478681092975 -0.015299655140934194 0.019827756233661325 0.088126507781024252 0.12790652505037459 -0.10254408712405445 0.18102112790358438 -0.068779765376604574 -0.020051534200410972 0.045244573792348614 -0.039732041438379925 -0.12046662632351608 0.047253688351300199 0.1671841028213501 -0.11945078761169786 -0.12236279909929502 0.16471733632662619 0.099011477890841026 0.076625745144805746 -0.1140477998421924 -0.019834299023086963
leaf_weight=75 789 128 1486 90 24 42 246 142 21 20 920 337 30 37 569 214 21 254 250 105 26 678 74 232 268 598 151 80 94 22 53 44 49 758 1153 65 219 26 337 61 440 87 240 107 106 352 698 388 215 224 99 235 612 38 125 76 4054 141 427 252 101 37
leaf_count=75 789 128 1486 90 24 42 246 142 21 20 920 337 30 37 569 214 21 254 250 105 26 678 74 232 268 598 151 80 94 22 53 44 49 758 1153 65 219 26 337 61 440 87 240 107 106 352 698 388 215 224 99 235 612 38 125 76 4054 141 427 252 101 37
internal_value=7.93887e-10 -0.0472077 0.0646232 0.0175803 0.104067 0.0102934 0.0334154 -0.00420763 -0.0931835 -0.0538866 0.155265 -0.0553656 0.135259 -0.0133122 0.106893 0.102255 0.0402729 0.149193 -0.0225185 -0.0786506 -0.0689363 0.111753 -0.036618 -0.0716247 -0.0179753 0.106017 -0.0626594 -0.0303806 -0.0714196 -0.120571 -0.0319277 -0.0877764 -0.05449 0.122943 0.176028 -0.042546 0.08377 -0.0581652 0.125968 0.0214235 0.0522602 0.0923364 -0.0153151 -0.00348098 0.0664499 0.108725 -0.0963455 0.166722 -0.0485761 -0.0439162 0.0109384 -0.0523161 -0.117715 -0.0067492 0.137773 -0.0946368 -0.121312 0.14038 0.089065 0.0703796 -0.0945229 -0.0605227
internal_weight=19842 11466 8376 3820 4556 1609 4164 2813 7302 1918 2947 3067 820 1093 2334 895 524 778 1286 1974 1637 1351 1036 360 676 874 569 249 169 4235 197 320 169 1804 2073 834 327 530 692 203 530 306 304 144 136 921 803 642 465 439 367 309 632 278 883 125 4213 478 673 276 159 58
internal_count=19842 11466 8376 3820 4556 1609 4164 2813 7302 1918 2947 3067 820 1093 2334 895 524 778 1286 1974 1637 1351 1036 360 676 874 569 249 169 4235 197 320 169 1804 2073 834 327 530 692 203 530 306 304 144 136 921 803 642 465 439 367 309 632 278 883 125 4213 478 673 276 159 58
is_linear=0
shrinkage=0.05


Tree=10
num_leaves=63
num_cat=0
split_feature=9 0 4 4 4 8 8 0 8 5 4 0 0 10 10 5 5 4 5 5 9 4 4 8 4 4 0 4 4 4 4 4 9 4 4 8 5 10 4 4 10 10 10 10 10 8 4 4 10 5 5 5 5 5 8 10 0 4 8 9 8 0
split_gain=21852.2 15342.9 5610.64 17277.3 7903.02 9745.41 4432.26 5560.66 2730.25 1532.74 1084.17 1082.52 1043.36 795.373 641.772 612.706 527.926 359.089 356.658 296.567 285.68 266.84 497.572 247.197 212.493 177.198 216.933 166.535 319.815 223.215 160.697 149.522 291.15 143.252 279.353 128.604 119.182 114.814 97.8622 82.1591 72.0209 69.2182 67.5731 66.7873 66.5951 61.3847 59.0284 145.92 57.5451 56.5881 54.8396 51.1029 50.2042 48.9229 44.8245 42.8086 38.1043 61.0744 38.0602 37.7976 33.909 44.7043
threshold=7.5000000000000009 16.500000000000004 27.500000000000004 34.500000000000007 12.500000000000002 -0.50419487030365684 222.50000000000003 22.500000000000004 97.250000000000014 283.50000000000006 27.500000000000004 3.5000000000000004 6.5000000000000009 26.375000000000004 29.125000000000004 206.50000000000003 21.500000000000004 43.500000000000007 7.5000000000000009 1539.5000000000002 63.500000000000007 39.500000000000007 41.500000000000007 -0.99949173996719221 46.500000000000007 18.500000000000004 8.5000000000000018 9.5000000000000018 8.0000000000000018 1.5000000000000002 32.500000000000007 34.500000000000007 1.0000000180025095e-35 12.500000000000002 14.500000000000002 -0.99994335236906151 1083.5000000000002 78.125000000000014 34.500000000000007 45.500000000000007 9.3750000000000018 1.3750000000000002 12.875000000000002 9.6250000000000018 5.6250000000000009 -0.99689437998514696 39.500000000000007 41.500000000000007 106.62500000000001 23.500000000000004 2890.5000000000005 476.50000000000006 91.500000000000014 5909.5000000000009 -0.30939153439153433 1.6250000000000002 7.5000000000000009 12.500000000000002 -0.99538103771974729 199.50000000000003 -0.99989009781161886 8.5000000000000018
decision_type=2 2 2 2 2 2 2 2 2 2 2 2 2 2 2 2 2 2 2 2 2 2 2 2 2 2 2 2 2 2 2 2 2 2 2 2 2 2 2 2 2 2 2 2 2 2 2 2 2 2 2 2 2 2 2 2 2 2 2 2 2 2
left_child=1 8 4 -4 5 -2 7 9 10 21 12 -7 27 23 40 39 25 -11 31 51 42 -3 -23 -6 52 44 -27 28 29 -1 55 -12 -33 -29 -35 -15 -17 -16 -20 -9 -5 -34 -13 45 -14 -25 -40 -48 60 -26 -21 -8 -24 -39 -36 56 57 -10 -28 -22 -37 -62
right_child=2 6 3 14 13 11 19 15 30 17 18 20 16 35 37 36 -18 -19 38 50 59 22 24 43 49 26 58 33 -30 -31 -32 32 41 34 54 48 -38 53 46 -41 -42 -43 -44 -45 -46 -47 47 -49 -50 -51 -52 -53 -54 -55 -56 -57 -58 -59 -60 -61 61 -63
leaf_value=-0.0035175045033295953 -0.11737607884315227 0.03161788566094647 -0.1165639637296325 0.028765339968384991 0.13737874521149529 -0.11102140681310134 0.05408953086426771 0.042915047342712814 -0.1256012343225025 -0.1163434767524677 -0.11905225589871407 0.059501333879024704 0.063422950315067464 0.18921471776896812 0.10359251040159852 0.096129575514979096 -0.082661075754599134 0.08434666178958572 -0.12409642067822545 0.11125326714454553 0.15750534109478631 -0.11964485490595111 -0.002776887442399666 0.085395898314038654 -0.059775354658266368 -0.084767540661912222 0.070987965994898011 -0.11877923295987364 0.053498751368606469 -0.11917670762285273 0.020239159397103572 -0.093339824359820883 -0.055626463369977945 0.056585293991321874 -0.025119109434837646 0.16567165605367282 0.13718596962109911 0.12597620458430941 -0.014001830189001339 -0.025379171420832815 0.068845469380958244 -0.0030557435197156989 0.11737180764604116 0.10301221253928439 0.11434433794858163 0.031583842509426176 -0.11963865090224704 -0.032540406295828203 0.17754586674744571 -0.013998617565886554 0.13783736398800669 0.086676661150545634 0.034007811081281751 0.16269963325238695 -0.10374267717588295 -0.11624466511317529 -0.10834540907699285 -0.018842584700197788 0.019706924453318592 0.18729380057875519 0.16101483001046352 0.13773803759658917
leaf_weight=75 779 222 1486 142 450 44 161 111 21 721 304 66 147 437 740 329 77 23 33 390 331 131 312 157 217 38 85 151 80 94 22 864 142 44 22 397 382 818 200 73 532 112 214 290 114 80 59 260 316 98 386 476 132 102 103 4054 101 37 63 157 367 471
leaf_count=75 779 222 1486 142 450 44 161 111 21 721 304 66 147 437 740 329 77 23 33 390 331 131 312 157 217 38 85 151 80 94 22 864 142 44 22 397 382 818 200 73 532 112 214 290 114 80 59 260 316 98 386 476 132 102 103 4054 101 37 63 157 367 471
internal_value=-4.37799e-10 -0.0448474 0.061392 0.0167012 0.0988633 0.00896489 0.0317446 -0.0052257 -0.0885243 -0.0545897 -0.0525974 0.130171 -0.0126465 0.147102 0.101548 0.0971425 0.0382593 -0.110139 -0.074718 0.103723 0.14399 -0.0174234 -0.0296561 0.110162 -0.0141245 0.059089 0.0217976 -0.0595265 -0.0288615 -0.0678487 -0.114543 -0.0879597 -0.0795052 -0.0833876 -0.0517655 0.165257 0.118188 0.118254 -0.0406064 0.0158201 0.0604013 -0.0324457 0.103731 0.0869211 0.0856645 0.0672315 -0.0352978 -0.0486495 0.158506 -0.0455337 0.124477 0.0784404 0.0081591 0.130048 -0.0899049 -0.115247 -0.0897968 -0.0574966 0.0491589 0.167089 0.153635 0.147932
internal_weight=19842 11466 8376 3820 4556 1591 4164 2751 7302 1856 3067 812 1093 2965 2334 895 524 744 1974 1413 768 1112 890 977 759 447 186 569 249 169 4235 1422 1118 320 169 1988 711 1660 552 184 674 254 280 527 261 237 519 319 1551 315 776 637 444 920 125 4213 159 58 148 488 1235 838
internal_count=19842 11466 8376 3820 4556 1591 4164 2751 7302 1856 3067 812 1093 2965 2334 895 524 744 1974 1413 768 1112 890 977 759 447 186 569 249 169 4235 1422 1118 320 169 1988 711 1660 552 184 674 254 280 527 261 237 519 319 1551 315 776 637 444 920 125 4213 159 58 148 488 1235 838
is_linear=0
shrinkage=0.05


Tree=11
num_leaves=63
num_cat=0
split_feature=9 4 8 4 4 4 6 8 4 6 4 4 7 7 4 7 4 7 7 8 7 9 4 4 4 7 7 7 7 7 7 7 7 7 7 8 8 6 4 7 8 7 9 7 10 10 10 8 4 7 8 6 4 10 4 4 7 4 4 7 4 10
split_gain=19721.6 10380.4 6700.73 5063.6 15592.7 7132.47 8929.09 2432.41 1842.46 5263.75 1526.17 1104.72 1048.92 867.975 843.223 688.261 625.071 792.917 362.569 358.435 308.221 291.285 268.976 277.283 202.353 195.904 166.422 160.219 140.881 114.687 106.81 90.1506 83.601 82.2347 80.8563 74.0568 69.0164 62.0042 61.7338 57.5184 55.6773 55.4266 54.9266 80.7777 51.4587 49.7784 45.8769 40.9005 38.2154 35.5679 35.3808 49.7157 35.349 32.9316 32.8358 44.7282 30.0529 28.6473 27.6352 27.6235 27.0784 26.2852
threshold=7.5000000000000009 34.500000000000007 139.50000000000003 27.500000000000004 34.500000000000007 12.500000000000002 1.5000000000000002 5.166666666666667 41.500000000000007 101.50000000000001 39.500000000000007 27.500000000000004 1023.8750000000001 8.1250000000000018 8.0000000000000018 611.62500000000011 12.500000000000002 31.875000000000004 531.62500000000011 1227.0000000000002 20.875000000000004 1.0000000180025095e-35 9.5000000000000018 8.0000000000000018 1.5000000000000002 2791.1250000000005 14.375000000000002 37.375000000000007 246.25000000000003 149.62500000000003 2084.2500000000005 24.875000000000004 10.875000000000002 2.3750000000000004 276.50000000000006 2550.0000000000005 1.0000000180025095e-35 3352.0000000000005 45.500000000000007 113.12500000000001 455.50000000000006 6402.0000000000009 2.5000000000000004 255.62500000000003 0.87500000000000011 1.6250000000000002 0.87500000000000011 0.15542724966485785 20.500000000000004 5526.3750000000009 0.096043639483926344 361.50000000000006 42.500000000000007 7.6250000000000009 16.500000000000004 27.500000000000004 99.625000000000014 20.500000000000004 42.500000000000007 37.375000000000007 18.500000000000004 0.62500000000000011
decision_type=2 2 2 2 2 2 2 2 2 2 2 2 2 2 2 2 2 2 2 2 2 2 2 2 2 2 2 2 2 2 2 2 2 2 2 2 2 2 2 2 2 2 2 2 2 2 2 2 2 2 2 2 2 2 2 2 2 2 2 2 2 2
left_child=1 7 8 5 -5 6 14 11 10 13 26 16 27 33 -2 29 22 32 38 40 53 61 23 24 50 48 44 -7 46 59 36 -15 -18 -10 -29 52 -17 -20 -11 -22 -4 57 43 -28 -3 54 -23 49 -14 -32 51 -1 -21 -16 -9 -56 -44 -27 -37 -6 -30 -19
right_child=3 2 19 4 15 12 -8 45 9 18 -12 -13 25 31 20 30 17 21 37 35 39 28 -24 -25 -26 41 42 34 60 -31 47 -33 -34 -35 -36 58 -38 -39 -40 -41 -42 -43 56 -45 -46 -47 -48 -49 -50 -51 -52 -53 -54 -55 55 -57 -58 -59 -60 -61 -62 -63
leaf_value=0.024204211291812716 -0.10449814639593427 -0.076123683973227024 0.047093325626292787 -0.11073577172984024 -0.038351449584588415 -0.052131581120193005 -0.11150819330458428 -0.11087503183035204 -0.097873918879488667 0.061776137757632466 -0.11192161691883987 -0.11324756597650464 0.14370588718422581 -0.034516252267589219 0.016906567510556091 0.088455555901944066 -0.089294215713837943 -0.026166489198803902 0.10756089580672433 0.11425762794039272 0.13988522641278434 -0.021510689705610278 -0.11263314528430966 0.050823813772876751 -0.11308044380611844 0.16715187322815006 0.0034450494340666003 0.061980510522262194 0.11675809674881517 0.064718185684788473 0.11427265593279963 -0.0026784030086453425 -0.012707289490848782 -0.067027761472584033 0.10044749222885983 0.14055509567260743 0.11782696896007668 0.1444380004811131 0.0053186543443697991 0.17099544545487755 0.077820202197099841 0.17778506803188746 0.012907144477792893 -0.09925360747036481 -0.027108882619451165 -0.1104250294347279 0.052704823876900432 0.15125203056335451 0.12070761092182763 0.13958161639385536 0.039249702771344493 -0.083350695754316723 0.086347230999120353 0.082981815627973646 -0.055369157705988208 -0.12551785255300588 0.057924786838355349 0.14992577130144294 0.1160697470631516 0.024018516804716446 0.073873207030388022 -0.10536628446795725
leaf_weight=21 38 81 258 1486 20 21 785 81 581 270 926 319 461 412 22 515 124 20 447 222 362 23 139 80 90 471 217 200 126 431 575 483 50 344 431 233 327 153 59 252 344 589 83 21 158 4093 220 125 297 183 31 22 232 132 105 29 67 495 228 158 52 22
leaf_count=21 38 81 258 1486 20 21 785 81 581 270 926 319 461 412 22 515 124 20 447 222 362 23 139 80 90 471 217 200 126 431 575 483 50 344 431 233 327 153 59 252 344 589 83 21 158 4093 220 125 297 183 31 22 232 132 105 29 67 495 228 158 52 22
internal_value=2.64093e-10 -0.042605 0.00426079 0.0583224 0.0158662 0.0939201 0.00851665 -0.0908982 -0.0276006 -0.00300639 -0.0711353 -0.0320373 0.139747 -0.0524377 0.125414 0.0964705 -0.00663924 0.0237112 0.0938343 0.0946152 0.13679 0.057909 -0.0571176 -0.0254919 -0.0627191 0.155536 -0.0108991 0.0837334 0.0704353 0.0507741 0.112603 -0.0173345 -0.0672865 -0.0864025 0.0882551 0.114329 0.0998623 0.116965 0.0516515 0.152654 0.0646515 0.165696 0.00931831 -0.0056166 -0.0437206 -0.109193 0.0456803 0.124753 0.134695 0.120383 -0.00146873 -0.0308239 0.099995 0.0735425 -0.0857426 -0.0705506 0.033015 0.158325 0.128445 0.0170107 0.10423 -0.0676521
internal_weight=19842 11466 5819 8376 3820 4556 1591 5647 4302 2749 1553 1339 2965 1820 806 2334 1020 637 929 1517 768 463 383 244 164 2313 627 652 421 609 1725 895 174 925 631 915 842 600 329 614 602 1555 388 238 239 4308 243 883 758 758 74 43 454 154 215 134 150 966 461 178 178 42
internal_count=19842 11466 5819 8376 3820 4556 1591 5647 4302 2749 1553 1339 2965 1820 806 2334 1020 637 929 1517 768 463 383 244 164 2313 627 652 421 609 1725 895 174 925 631 915 842 600 329 614 602 1555 388 238 239 4308 243 883 758 758 74 43 454 154 215 134 150 966 461 178 178 42
is_linear=0
shrinkage=0.05


Tree=12
num_leaves=63
num_cat=1
split_feature=9 0 4 4 4 6 8 0 8 6 4 0 0 10 10 6 9 4 8 4 4 9 8 6 4 4 0 4 0 6 2 6 4 8 4 4 4 4 10 4 4 10 6 10 10 4 9 4 6 4 0 8 6 0 8 0 10 4 4 4 10 0
split_gain=17798.7 12522.3 4569.9 14072.4 6437.06 8058.5 3605.21 4325.36 2214.84 1330.36 888.369 852.536 761.009 655.371 528.596 508.572 431.596 399.636 286.05 263.966 267.653 238.272 192.068 178.267 157.723 355.327 156.522 146.987 178.886 145.696 145.266 143.377 133.233 129.604 127.378 109.766 107.658 127.361 94.4914 86.9953 137.176 67.2125 67.1877 60.8046 57.3736 56.9532 53.7729 46.7815 107.611 44.5455 44.4018 44.3101 42.0843 40.6618 39.995 35.8763 35.8298 35.5866 94.1662 57.3122 35.0954 34.9772
threshold=7.5000000000000009 16.500000000000004 27.500000000000004 34.500000000000007 12.500000000000002 1.5000000000000002 335.50000000000006 22.500000000000004 97.250000000000014 261.50000000000006 27.500000000000004 6.5000000000000009 3.5000000000000004 21.125000000000004 29.125000000000004 478.50000000000006 1.0000000180025095e-35 41.500000000000007 76.500000000000014 34.500000000000007 39.500000000000007 37.500000000000007 1974.5000000000002 1441.5000000000002 39.500000000000007 41.500000000000007 9.5000000000000018 18.500000000000004 8.5000000000000018 30.500000000000004 0 6.5000000000000009 32.500000000000007 -0.99992927864179604 41.500000000000007 46.500000000000007 9.5000000000000018 12.500000000000002 77.375000000000014 8.0000000000000018 1.5000000000000002 57.875000000000007 2913.5000000000005 11.875000000000002 10.625000000000002 14.500000000000002 138.50000000000003 14.500000000000002 101.50000000000001 46.500000000000007 19.500000000000004 0.7533320557280907 6275.5000000000009 3.5000000000000004 11.16666666666667 8.5000000000000018 7.6250000000000009 9.5000000000000018 8.0000000000000018 1.5000000000000002 1.3750000000000002 21.500000000000004
decision_type=2 2 2 2 2 2 2 2 2 2 2 2 2 2 2 2 2 2 2 2 2 2 2 2 2 2 2 2 2 2 9 2 2 2 2 2 2 2 2 2 2 2 2 2 2 2 2 2 2 2 2 2 2 2 2 2 2 2 2 2 2 2
left_child=1 8 4 -4 5 12 7 9 10 18 11 30 -2 23 43 35 -13 -11 24 -12 26 56 50 47 -3 -26 53 44 -29 51 36 54 60 -15 -33 -9 39 -38 -16 40 -1 52 -17 -5 -18 -39 -23 -6 -49 -36 -8 -27 -35 -21 -22 -43 -14 58 59 -32 -10 -24
right_child=2 6 3 14 13 -7 22 15 32 17 19 16 21 33 38 42 27 -19 -20 20 31 46 61 -25 25 29 -28 28 -30 -31 57 34 -34 41 49 -37 37 45 -40 -41 -42 55 -44 -45 -46 -47 -48 48 -50 -51 -52 -53 -54 -55 -56 -57 -58 -59 -60 -61 -62 -63
leaf_value=0.050676731233085907 -0.099273238997710386 0.023573433837716606 -0.10519897826266643 0.033160019248870277 0.1018401069710982 -0.10593278675322321 0.091743727930282293 0.0480645891733174 -0.07833117736402409 -0.10489411300255194 -0.10789613083491341 -0.074728234634770976 0.02085000396422718 0.1664963519319575 0.093294959144853834 0.10171306467952382 0.065529764694550519 0.068117694833448955 0.035173081635339221 -0.098830268532037746 -0.085143125798499752 0.13150066332316693 0.12865411067688012 0.11734321801145178 -0.10836836235089736 -0.051344107168095357 0.0017702868897901945 -0.077295630386001193 0.044320773672488697 0.0099971608262271923 -0.035289204168192888 -0.10909996417852548 0.019357432289557025 0.12054271834839388 -0.020187532251531429 -0.027032242226596281 -0.10709527645792281 0.059130719806189128 0.11733925977256648 0.065895449484185298 -0.10881579105670636 0.1625126104212519 0.13736898243111909 0.064970856887209397 0.12301169828935105 -0.039171442366773036 0.16180588011438035 -0.045882443341807549 0.068932523563956669 -0.063175110613186689 0.066585820081333333 -0.016952050335148905 0.14334490714171644 -0.045817577446051611 -0.024349984603135713 0.14012280539609492 0.087754356347375204 -0.089366224236786362 0.020442994395571373 -0.10709165352232315 -0.10481941811776885 0.10497660943633552
leaf_weight=28 38 143 1486 226 89 785 342 203 129 720 337 77 23 611 727 439 206 35 253 47 801 324 316 401 132 239 236 38 148 267 47 65 22 502 220 64 56 23 933 49 26 335 189 448 55 41 267 22 282 83 360 154 339 157 28 384 154 200 31 68 4084 308
leaf_count=28 38 143 1486 226 89 785 342 203 129 720 337 77 23 611 727 439 206 35 253 47 801 324 316 401 132 239 236 38 148 267 47 65 22 502 220 64 56 23 933 49 26 335 189 448 55 41 267 22 282 83 360 154 339 157 28 384 154 200 31 68 4084 308
internal_value=3.47985e-10 -0.0404747 0.0554063 0.0150729 0.0892241 0.00809081 0.0287199 -0.00308149 -0.0799333 -0.0449753 -0.0475747 -0.0114109 0.119144 0.13276 0.091647 0.087868 0.0346049 -0.0968737 -0.0119928 -0.0675984 -0.0593026 0.129951 0.0967834 0.0938891 -0.0247553 -0.0334814 -0.0259559 0.0534385 0.0194744 -0.018504 -0.0537875 -0.0715603 -0.103367 0.146976 -0.0455877 0.0300639 -0.0189903 -0.052028 0.106809 0.0176565 -0.026116 0.13933 0.112444 0.0543043 0.0776428 -0.0038441 0.145192 0.0699576 0.0606235 -0.031963 0.0788422 -0.0378673 0.129734 -0.0580313 -0.0830898 0.150555 0.0790606 -0.0735403 -0.0568979 -0.0777463 -0.104008 0.116967
internal_weight=19842 11466 8376 3820 4556 1591 4164 2838 7302 1943 3067 1093 806 2965 2334 895 524 755 1188 1974 1637 768 1326 794 935 792 440 447 186 660 569 1197 4235 2171 368 267 223 120 1660 103 54 1560 628 674 261 64 591 393 304 303 702 393 841 204 829 719 177 346 146 115 4213 624
internal_count=19842 11466 8376 3820 4556 1591 4164 2838 7302 1943 3067 1093 806 2965 2334 895 524 755 1188 1974 1637 768 1326 794 935 792 440 447 186 660 569 1197 4235 2171 368 267 223 120 1660 103 54 1560 628 674 261 64 591 393 304 303 702 393 841 204 829 719 177 346 146 115 4213 624
cat_boundaries=0 2
cat_threshold=2235588624 4619
is_linear=0
shrinkage=0.05


Tree=13
num_leaves=63
num_cat=0
split_feature=9 0 4 4 4 6 8 0 8 5 7 4 0 0 7 7 7 4 5 7 5 4 4 7 7 8 7 4 4 4 4 7 4 4 4 4 7 7 4 4 7 7 7 0 7 7 5 4 4 7 5 8 4 7 4 7 5 7 7 5 7 0
split_gain=16063.3 11301.4 4124.34 12700.4 5809.44 7272.8 3256.69 4098.15 1998.89 1122.05 874.209 801.753 769.414 686.81 581.127 469.851 468.229 271.403 270.536 258.976 221.788 199.548 365.215 202.078 162.77 140.529 137.198 122.899 235.16 164.055 120.242 109.685 108.66 224.495 106.909 218.027 91.9423 81.1293 74.8049 72.6602 70.51 69.2872 67.1192 64.7242 57.3423 56.1342 54.1066 51.3151 108.429 48.9938 47.7345 45.1553 40.0747 41.0915 37.8227 36.9446 36.1142 35.297 34.3696 33.8458 33.366 32.0345
threshold=7.5000000000000009 16.500000000000004 27.500000000000004 34.500000000000007 12.500000000000002 1.5000000000000002 222.50000000000003 22.500000000000004 97.250000000000014 283.50000000000006 1023.8750000000001 27.500000000000004 6.5000000000000009 3.5000000000000004 517.62500000000011 109.62500000000001 236.87500000000003 43.500000000000007 7.5000000000000009 17.375000000000004 1509.5000000000002 39.500000000000007 41.500000000000007 24.875000000000004 3270.1250000000005 0.15542724966485785 154.37500000000003 9.5000000000000018 8.0000000000000018 1.5000000000000002 32.500000000000007 1565.1250000000002 12.500000000000002 14.500000000000002 34.500000000000007 36.500000000000007 895.12500000000011 103.87500000000001 36.500000000000007 46.500000000000007 378.75000000000006 2.3750000000000004 10.875000000000002 9.5000000000000018 37.375000000000007 66.875000000000014 1443.5000000000002 39.500000000000007 41.500000000000007 6.8750000000000009 6423.5000000000009 3557.0000000000005 16.500000000000004 0.87500000000000011 20.500000000000004 9127.6250000000018 703.50000000000011 3641.0000000000005 5526.3750000000009 489.50000000000006 70.875000000000014 21.500000000000004
decision_type=2 2 2 2 2 2 2 2 2 2 2 2 2 2 2 2 2 2 2 2 2 2 2 2 2 2 2 2 2 2 2 2 2 2 2 2 2 2 2 2 2 2 2 2 2 2 2 2 2 2 2 2 2 2 2 2 2 2 2 2 2 2
left_child=1 8 4 -4 5 13 7 9 11 21 26 12 27 -2 37 25 39 -11 34 -15 56 -3 -23 49 54 42 44 28 29 -1 -10 46 -29 -34 -13 43 -18 -5 -20 -9 -17 -37 -14 -36 -6 -21 -16 -40 -49 -24 58 61 -35 -54 -12 -26 -8 -38 -33 -39 -25 -22
right_child=2 6 3 14 10 -7 20 16 30 17 24 18 15 19 31 40 36 -19 38 45 51 22 23 60 55 -27 -28 32 -30 -31 -32 50 33 52 35 41 57 59 47 -41 -42 -43 -44 -45 -46 -47 -48 48 -50 -51 -52 -53 53 -55 -56 -57 -58 -59 -60 -61 -62 -63
leaf_value=-0.0030354918887217841 -0.094309578757537038 0.027424010962482776 -0.099939029181468853 0.0019105277017619955 -0.048173866172631585 -0.10063615101917534 0.052861635839674841 0.036308930762125262 -0.098807940279648024 -0.099706659601399378 0.13261407606548184 -0.10204245763781823 -0.058188891672604798 0.05942763941938356 0.073415664038564796 0.05533965572548312 0.075450807540189666 0.074767977728143989 -0.097836634499389077 0.11625599922839874 0.1100430862287457 -0.10266004969145506 -0.074206634009113689 -0.0033324260085973202 0.14704403759647605 -0.089388218415634976 0.0859341767927011 -0.10241987957859672 0.045868492417503154 -0.10219011522353966 0.018389560688625683 0.10305731269071727 0.053075769619846891 -0.1166575778614391 -0.053962584493799162 -0.087732785928413881 0.10901093723768013 0.041889291789717731 -0.0085887653706595308 -0.028937589694730571 0.10564918372976154 -0.059908070984180745 0.017646509428775155 0.012036634591457091 0.042710789833428867 0.1474384716568658 0.10264455452561379 -0.10260564472715734 -0.027525565458121355 -0.03052783729786207 0.14681788639324467 0.12308432395811436 -0.093434875458478936 -0.022204302105961776 0.11214777069317328 0.1664630623534322 0.077204975661361364 0.14519752764407498 0.12690098142363335 0.073171057164176434 0.024005674874153071 0.085313192728892373
leaf_weight=75 38 222 1486 106 21 785 271 142 4213 721 579 304 37 131 415 179 210 23 43 221 267 131 91 245 1044 56 531 151 80 94 22 868 44 44 61 608 401 303 190 61 114 354 138 95 100 416 256 59 260 218 82 270 40 41 370 320 348 81 183 121 205 257
leaf_count=75 38 222 1486 106 21 785 271 142 4213 721 579 304 37 131 415 179 210 23 43 221 267 131 91 245 1044 56 531 151 80 94 22 868 44 44 61 608 401 303 190 61 114 354 138 95 100 416 256 59 260 218 82 270 40 41 370 320 348 81 183 121 205 257
internal_value=8.20232e-10 -0.038451 0.052636 0.0143192 0.0847629 0.00768627 0.0272839 -0.00440661 -0.0759366 -0.0467847 0.126122 -0.0451959 -0.0108404 0.113186 0.0870646 0.0328746 0.0834746 -0.094313 -0.0642185 0.123453 0.0889827 -0.0149852 -0.0255636 -0.0122571 0.140536 -0.0204481 0.0749854 -0.0510981 -0.0247552 -0.0581866 -0.0981991 0.100588 -0.0715962 -0.0440554 -0.0757512 -0.0686022 0.103062 0.0410352 -0.0345095 0.0167028 0.074914 -0.0774938 0.00161274 -0.0137708 0.0269374 0.13662 0.0845671 -0.0291596 -0.0414118 -0.0433912 0.110076 0.106473 -0.0782456 -0.0573799 0.124635 0.1516 0.0665474 0.115092 0.107209 0.0508164 0.0091216 0.0979141
internal_weight=19842 11466 8376 3820 4556 1591 4164 2751 7302 1856 2965 3067 1093 806 2334 524 895 744 1974 768 1413 1112 890 759 2313 231 652 569 249 169 4235 1804 320 169 1422 1118 692 530 552 203 293 962 175 156 121 637 671 509 319 309 1133 794 125 81 949 1364 619 482 1051 424 450 524
internal_count=19842 11466 8376 3820 4556 1591 4164 2751 7302 1856 2965 3067 1093 806 2334 524 895 744 1974 768 1413 1112 890 759 2313 231 652 569 249 169 4235 1804 320 169 1422 1118 692 530 552 203 293 962 175 156 121 637 671 509 319 309 1133 794 125 81 949 1364 619 482 1051 424 450 524
is_linear=0
shrinkage=0.05


Tree=14
num_leaves=63
num_cat=0
split_feature=8 10 0 0 0 0 0 5 0 6 0 0 0 0 0 0 5 8 7 7 0 10 7 0 0 6 7 10 5 5 5 6 7 10 7 0 7 7 0 7 8 5 5 7 10 7 10 10 7 0 8 5 8 5 7 10 8 7 0 8 7 7
split_gain=9066.17 9076.5 2140.14 1843.47 5659.2 5109.08 10099.4 4087.28 1840.53 1570.67 1235.59 1217.95 5926.79 640.78 883.463 941.631 548.356 522.059 486.597 430.516 360.61 571.956 316.327 229.288 291.339 222.464 188.664 171.089 125.661 105.88 92.4869 80.6679 78.3735 77.8778 75.1932 74.525 85.5143 64.8044 62.8309 154.774 60.7699 53.1957 52.5796 52.5292 51.8509 48.4427 46.4057 46.2119 45.6368 42.2775 59.0051 46.8213 38.0786 37.704 39.6259 37.6961 37.3986 36.7087 36.3588 36.0746 36.0645 35.2701
threshold=4956.0000000000009 14.875000000000002 17.500000000000004 6.5000000000000009 4.5000000000000009 13.500000000000002 16.500000000000004 86.500000000000014 3.5000000000000004 53.500000000000007 16.500000000000004 19.500000000000004 20.500000000000004 6.5000000000000009 13.500000000000002 20.500000000000004 253.50000000000003 -0.99728629079769049 2.3750000000000004 50.375000000000007 7.5000000000000009 3.3750000000000004 1902.7500000000002 15.500000000000002 19.500000000000004 1635.5000000000002 43.125000000000007 42.125000000000007 27.500000000000004 23.500000000000004 196.50000000000003 978.50000000000011 578.37500000000011 4.8750000000000009 458.12500000000006 5.5000000000000009 43.125000000000007 5768.5000000000009 5.5000000000000009 70.875000000000014 -0.99114974937343348 253.50000000000003 2992.0000000000005 1.8750000000000002 1.8750000000000002 3.1250000000000004 1.6250000000000002 5.3750000000000009 3088.3750000000005 14.500000000000002 58.500000000000007 52.500000000000007 0.7533320557280907 749.50000000000011 1319.1250000000002 1.8750000000000002 0.096043639483926344 133.87500000000003 1.0000000180025095e-35 165.50000000000003 77.875000000000014 109.62500000000001
decision_type=2 2 2 2 2 2 2 2 2 2 2 2 2 2 2 2 2 2 2 2 2 2 2 2 2 2 2 2 2 2 2 2 2 2 2 2 2 2 2 2 2 2 2 2 2 2 2 2 2 2 2 2 2 2 2 2 2 2 2 2 2 2
left_child=1 9 -2 4 8 7 -7 22 56 10 16 27 41 46 17 23 18 31 58 28 21 38 34 40 47 32 43 53 45 -26 -17 -15 -14 49 -5 36 -23 -24 60 -40 -16 -13 -29 -10 -19 -12 -11 -25 -27 50 -22 -51 -30 54 -8 -31 -3 59 -1 -21 -20 -37
right_child=2 3 -4 5 -6 6 11 -9 26 13 19 12 25 14 15 30 -18 44 20 57 33 35 37 24 29 48 -28 42 52 55 -32 -33 -34 -35 -36 61 -38 -39 39 -41 -42 -43 -44 -45 -46 -47 -48 -49 -50 51 -52 -53 -54 -55 -56 -57 -58 -59 -60 -61 -62 -63
leaf_value=-0.016526853541533153 -0.095078611373901376 -0.095712870466816535 0.12727003424568514 0.058741346365284358 -0.093696523468988935 -0.094060230882278315 0.050261491369686967 -0.095158000148799091 0.008478997927159072 -0.02107574537234462 -0.090701542794704437 -0.012101708054542542 0.0445141203466939 0.054424182549486028 -0.092243967285431716 0.025417329540446999 -0.092343284800952802 -0.023900811230142913 -0.047773449982612813 0.0077759344862827753 -0.043684406270773191 0.045524657068332447 0.13213882290058895 -0.0095447209311458163 0.032712721045721663 0.095652549203159742 0.13514346142952469 0.097113898624643757 -0.024322741916290969 -0.03085045585537265 0.072128435130053695 0.093723765369810044 0.077116707665458625 -0.080996186206537188 0.10554174288790277 0.028320645577003881 -0.05366799937827247 0.15137292293792076 -0.045609632548100007 0.078148966282606133 -0.022778792297726294 -0.094974076268316693 0.11874696802585682 0.087387284465219789 0.019514253545061165 -0.036921549376498525 -0.075934693989116009 0.032887348758244735 0.12028959101519071 -0.034418893997874865 -0.080641935280075794 0.036307854208504207 0.017836329384417034 0.087421400658032195 0.084487135479083431 -0.092867576953353764 -0.021435461994260552 0.052384540631275379 -0.078853352732732612 0.052506165962288347 -0.092359100797241842 0.088303985370275312
leaf_weight=24 2559 111 113 105 863 1327 242 221 24 46 48 20 236 203 251 287 980 150 145 130 540 97 1156 156 22 515 522 836 83 29 168 366 842 173 470 31 28 705 120 32 36 609 423 174 127 328 238 109 296 234 135 26 151 247 130 158 20 238 935 69 66 117
leaf_count=24 2559 111 113 105 863 1327 242 221 24 46 48 20 236 203 251 287 980 150 145 130 540 97 1156 156 22 515 522 836 83 29 168 366 842 173 470 31 28 705 120 32 36 609 423 174 127 328 238 109 296 234 135 26 151 247 130 158 20 238 935 69 66 117
internal_value=4.23746e-11 0.0133328 -0.0856754 0.0437701 -0.00347676 0.0534338 0.0268324 0.110731 0.0880152 -0.0300864 -0.0466766 0.0633258 0.040597 0.00336275 0.0130606 -0.0142379 -0.060302 0.0522981 -0.048685 0.00125298 -0.0329536 -0.00294425 0.12941 -0.0482596 -0.0269036 0.084862 0.11938 0.0938003 -0.0258843 -0.0710434 0.0426645 0.079703 0.0699792 -0.0501792 0.0969956 0.0517315 0.0233055 0.139425 -0.044064 -0.0195552 -0.0835306 -0.092339 0.104382 0.0778226 -0.00399571 -0.0437871 -0.0670491 0.00790847 0.104645 -0.0444773 -0.0510759 -0.0273462 0.00288247 0.0722774 0.0622221 -0.0832499 -0.0843728 0.0391334 -0.0772936 0.0232854 -0.0617197 0.0757399
internal_weight=19842 17170 2672 10094 1714 8380 5723 2657 851 7076 4730 4396 2518 2346 2062 1216 3683 846 2703 1047 1744 636 2436 761 474 1889 720 1878 610 209 455 569 1078 1108 575 273 125 1861 363 152 287 629 1259 198 277 376 284 265 811 935 675 260 234 619 372 187 131 437 959 199 211 148
internal_count=19842 17170 2672 10094 1714 8380 5723 2657 851 7076 4730 4396 2518 2346 2062 1216 3683 846 2703 1047 1744 636 2436 761 474 1889 720 1878 610 209 455 569 1078 1108 575 273 125 1861 363 152 287 629 1259 198 277 376 284 265 811 935 675 260 234 619 372 187 131 437 959 199 211 148
is_linear=0
shrinkage=0.05


Tree=15
num_leaves=63
num_cat=0
split_feature=9 4 8 4 4 4 6 4 5 8 7 5 4 7 4 7 7 4 7 7 5 7 5 9 8 4 4 4 7 7 7 7 9 7 5 4 5 5 7 7 4 7 7 4 5 6 6 7 4 7 4 7 5 7 4 8 5 4 4 4 4 5
split_gain=13087.2 7184.26 4522.77 3503.54 10528 4789.24 5912.84 1409 3594.3 1205.7 863.5 623.818 613.37 584.117 537.363 386.587 308.549 288.087 380.174 273.864 268.311 265.365 191.972 179.853 212.053 156.852 159.004 137.444 134.361 104.18 97.0959 80.2836 73.3387 68.2194 66.523 60.4627 58.7492 57.4724 49.2469 48.1053 44.1981 43.8053 42.6152 40.5193 38.8039 38.7754 35.5539 34.1672 33.5189 30.9182 30.3197 29.9005 27.1519 26.5874 25.5093 25.0763 40.9566 24.938 28.0481 31.9617 28.1909 24.8588
threshold=5.5000000000000009 34.500000000000007 114.50000000000001 27.500000000000004 34.500000000000007 12.500000000000002 1.5000000000000002 43.500000000000007 75.500000000000014 35.500000000000007 1023.8750000000001 121.50000000000001 8.0000000000000018 446.87500000000006 27.500000000000004 8.1250000000000018 9.6250000000000018 12.500000000000002 10.875000000000002 17.375000000000004 981.50000000000011 650.25000000000011 1.5000000000000002 1.5000000000000002 11.16666666666667 9.5000000000000018 8.0000000000000018 1.5000000000000002 2791.1250000000005 1725.7500000000002 197.25000000000003 85.625000000000014 1.0000000180025095e-35 264.87500000000006 2508.5000000000005 20.500000000000004 1957.5000000000002 33.500000000000007 1.8750000000000002 138.87500000000003 44.500000000000007 3.1250000000000004 95.125000000000014 39.500000000000007 6586.5000000000009 21053.500000000004 3432.5000000000005 17.375000000000004 16.500000000000004 683.62500000000011 20.500000000000004 8642.3750000000018 458.50000000000006 47.875000000000007 20.500000000000004 0.096043639483926344 323.50000000000006 44.500000000000007 48.500000000000007 49.500000000000007 46.500000000000007 297.50000000000006
decision_type=2 2 2 2 2 2 2 2 2 2 2 2 2 2 2 2 2 2 2 2 2 2 2 2 2 2 2 2 2 2 2 2 2 2 2 2 2 2 2 2 2 2 2 2 2 2 2 2 2 2 2 2 2 2 2 2 2 2 2 2 2 2
left_child=1 9 7 5 -5 6 12 11 15 14 16 23 -2 31 17 38 -7 25 -19 41 52 40 30 24 32 26 27 55 50 36 53 -6 -3 -18 49 -24 -15 57 -9 -21 -10 -14 -25 -13 51 48 -23 -34 -30 -22 -12 -31 -4 -20 -35 56 -1 -17 60 -60 -59 -33
right_child=3 2 20 4 13 10 -8 8 21 -11 28 43 19 29 -16 37 33 18 22 39 34 46 35 42 -26 -27 -28 -29 45 44 -32 61 47 54 -36 -37 -38 -39 -40 -41 -42 -43 -44 -45 -46 -47 -48 -49 -50 -51 -52 -53 -54 -55 -56 -57 -58 58 59 -61 -62 -63
leaf_value=0.024645718719278065 -0.086716304648490186 -0.069638267969639858 0.037191506018118367 -0.090412424292983323 -0.003892185515156243 -0.12860643818974496 -0.091092167355120185 -0.082208093290478651 0.058179863228630203 -0.089131819969422599 0.1177085081861204 -0.018771802007686349 -0.013512558738390605 0.06847879690956013 -0.094358153595374195 -0.0013387105657186892 0.049233022506580688 -0.069692811512428773 -0.0008190906630582451 0.11500559890769113 0.0914712851172063 0.092095610859313448 -0.10437138275853519 -0.0061345245260911599 -0.0023644050055659041 -0.093532067293026419 0.042824040132646381 -0.092971065293910901 0.14605793869495393 0.095551199279930471 0.078133552396422501 0.033457340135597029 -0.050613206236157574 0.093108367951226845 0.10510048052851291 0.0029155898839235308 0.09854921177363718 0.0055105855324413654 -0.057232523699365989 0.14546207331162131 0.022391514335241586 0.060238112805783756 0.040507678194110525 -0.090831878298393273 0.13392148032784462 0.15143780826732814 0.1206485302061648 -0.0022125951228176813 0.12689647965086331 0.067542414717814511 0.097400458391294839 0.13418584387257415 0.059810680860267362 0.036871799804580711 0.070030813324129929 0.033155101537704471 -0.072975738820704558 -0.024858875775114739 0.01147356342867409 -0.036695626637116931 -0.064118268562569511 0.058755261892902449
leaf_weight=21 42 416 288 1548 123 20 800 456 239 4295 477 20 24 598 260 70 249 115 68 457 268 414 29 182 235 122 65 86 300 909 143 294 80 238 473 24 223 181 348 181 135 125 67 793 80 302 148 67 954 272 299 53 246 150 241 32 22 81 57 87 105 145
leaf_count=21 42 416 288 1548 123 20 800 456 239 4295 477 20 24 598 260 70 249 115 68 457 268 414 29 182 235 122 65 86 300 909 143 294 80 238 473 24 223 181 348 181 135 125 67 793 80 302 148 67 954 272 299 53 246 150 241 32 22 81 57 87 105 145
internal_value=-2.69711e-11 -0.0358161 0.00325065 0.0460387 0.0114591 0.0752135 0.00587835 -0.023775 0.00220887 -0.0770117 0.111885 -0.0561989 0.0994567 0.0764889 -0.031228 -0.048942 0.0651392 -0.0125121 0.010731 0.109392 0.0762915 0.0778968 0.033071 -0.0306828 -0.0422587 -0.0478443 -0.0231809 -0.0498289 0.126878 0.0899669 0.0461168 0.03181 -0.0589109 0.0704619 0.09141 -0.0557886 0.0766465 -0.0178671 -0.0713978 0.123646 0.0452616 0.0483588 0.00641579 -0.0890592 0.100462 0.135354 0.0996149 -0.0285531 0.131481 0.0794182 0.109884 0.0976797 0.0476116 0.025115 0.0814973 -0.000359239 -0.0253001 -0.0284456 -0.0341955 -0.0176287 -0.0470214 0.0418131
internal_weight=19842 11160 5728 8682 3973 4709 1629 4181 2321 5432 3080 1860 829 2425 1137 1385 748 877 529 787 1547 936 414 1047 798 348 226 161 2332 1863 361 562 563 728 1013 53 821 581 804 638 374 149 249 813 1042 1556 562 147 1254 540 776 962 534 218 479 75 43 400 330 144 186 439
internal_count=19842 11160 5728 8682 3973 4709 1629 4181 2321 5432 3080 1860 829 2425 1137 1385 748 877 529 787 1547 936 414 1047 798 348 226 161 2332 1863 361 562 563 728 1013 53 821 581 804 638 374 149 249 813 1042 1556 562 147 1254 540 776 962 534 218 479 75 43 400 330 144 186 439
is_linear=0
shrinkage=0.05


Tree=16
num_leaves=63
num_cat=0
split_feature=9 0 4 4 0 6 8 0 8 6 7 4 7 4 7 4 9 8 4 0 4 7 7 7 5 7 7 7 7 4 4 7 4 4 9 4 4 4 8 4 7 7 4 4 7 7 5 4 4 7 7 5 8 0 4 7 10 0 4 8 4 4
split_gain=11811.2 8537.62 3161.95 9501.47 4345.7 5063.09 2423.1 2993.35 1212.32 857.479 729.267 537.867 528.773 410.189 344.332 318.748 310.413 190.902 189.715 360.98 223.302 176.554 150.506 139.674 135.446 119.005 97.2821 80.8607 79.5049 71.4268 103.676 70.1479 67.3125 58.1294 56.5791 89.006 95.9622 80.9766 109.07 100.312 53.8575 51.0171 77.0608 164.198 49.5182 47.2016 47.1454 45.4272 70.4362 42.1258 40.5536 40.1232 39.0182 37.4226 36.4812 36.1248 35.6292 38.7814 67.0796 48.0039 35.0862 40.1719
threshold=5.5000000000000009 16.500000000000004 27.500000000000004 34.500000000000007 6.5000000000000009 1.5000000000000002 335.50000000000006 22.500000000000004 256.50000000000006 179.50000000000003 1501.6250000000002 8.0000000000000018 341.37500000000006 9.5000000000000018 236.87500000000003 41.500000000000007 1.5000000000000002 76.500000000000014 27.500000000000004 6.5000000000000009 34.500000000000007 2.3750000000000004 34.375000000000007 143.37500000000003 2112.0000000000005 1433.7500000000002 56.875000000000007 9.6250000000000018 4422.1250000000009 9.5000000000000018 8.0000000000000018 1053.1250000000002 9.5000000000000018 46.500000000000007 1.0000000180025095e-35 23.000000000000004 12.500000000000002 36.500000000000007 11.16666666666667 1.5000000000000002 85.625000000000014 175.12500000000003 41.500000000000007 39.500000000000007 578.37500000000011 213.50000000000003 1218.0000000000002 12.500000000000002 14.500000000000002 31.875000000000004 378.75000000000006 4828.5000000000009 0.096043639483926344 19.500000000000004 34.500000000000007 3768.6250000000005 1.6250000000000002 9.5000000000000018 16.500000000000004 76.500000000000014 46.500000000000007 48.500000000000007
decision_type=2 2 2 2 2 2 2 2 2 2 2 2 2 2 2 2 2 2 2 2 2 2 2 2 2 2 2 2 2 2 2 2 2 2 2 2 2 2 2 2 2 2 2 2 2 2 2 2 2 2 2 2 2 2 2 2 2 2 2 2 2 2
left_child=1 8 4 -4 5 11 7 9 16 17 23 -2 40 22 33 -11 21 27 19 29 -20 32 -13 49 53 46 -21 -3 -12 30 -18 -16 -1 -9 37 36 -36 39 45 52 -5 42 43 -29 -25 -39 -14 -31 -49 -6 -28 55 -23 -8 -37 -27 57 58 -41 -60 -44 -62
right_child=2 6 3 12 10 -7 24 14 -10 15 28 13 25 -15 31 -17 18 -19 20 26 -22 34 -24 44 -26 51 50 41 -30 47 -32 -33 -34 -35 35 54 -38 38 -40 56 -42 -43 60 -45 -46 -47 -48 48 -50 -51 -52 -53 -54 -55 -56 -57 -58 -59 59 -61 61 -63
leaf_value=-0.0065807614777539233 -0.082380489792142603 -0.058001010601709452 -0.085891805296566454 -0.0036975762095090335 -0.042986821565067487 -0.08290331517827923 0.076301593703953605 0.031644616307291602 -0.08524114742981985 -0.085636251499959501 0.11373286480330072 0.071452120095879465 0.059740507364973876 -0.09816511619091034 0.067549020514494129 0.04720664032114049 -0.088599024907402374 0.028362277057942139 -0.088955303324255983 -0.0086699898866936572 -0.004890943531228124 -0.035709100557406524 0.1210153280127573 0.064362544079865913 0.096986640346785113 0.08333573063891947 0.045297405222203019 0.0044843234155461731 0.13321973317135236 -0.088888929571424219 0.042396689130162653 0.10080697019939466 -0.075708645933390634 -0.027883553773100523 -0.053610961474478247 -0.074314288141718809 0.041043322359177251 -0.042531456959460562 0.0057392712659584209 -0.090751310288906095 0.034896665185558833 0.05411340984014365 0.0041669938953903815 -0.093280815743328485 0.088913707279114643 -0.10084760370286737 0.085782021374072676 0.042001113100420866 -0.070605044248627458 0.034588764528078693 0.095070703070739226 0.11773990756505495 0.050254960324276579 0.053837297150350516 -0.027600417473520385 0.10273653007944952 -0.088014972593524671 -0.096949091363460471 -0.043254329714557678 0.035824357824666163 -0.049280968227916784 -0.0046553917972731495
leaf_weight=37 42 127 1548 123 21 812 362 140 4043 762 1060 210 505 25 246 48 23 253 157 70 159 33 566 366 584 660 139 83 1034 84 44 446 730 58 40 69 81 558 122 50 341 26 285 89 468 37 265 21 41 105 58 154 22 380 106 377 202 47 61 28 85 124
leaf_count=37 42 127 1548 123 21 812 362 140 4043 762 1060 210 505 25 246 48 23 253 157 70 159 33 566 366 584 660 139 83 1034 84 44 446 730 58 40 69 81 558 122 50 341 26 285 89 468 37 265 21 41 105 58 154 22 380 106 377 202 47 61 28 85 124
internal_value=-1.16133e-10 -0.0340253 0.0437367 0.0108862 0.0714528 0.00620424 0.0233843 -0.00320736 -0.0673394 -0.0389377 0.106812 0.092035 0.0726645 0.10118 0.0723483 -0.0777641 -0.0433657 -0.00960063 -0.0165727 0.00323284 -0.0466571 -0.0529596 0.107603 0.0707265 0.078974 0.0840216 0.0419608 -0.0213279 0.123355 -0.0453135 -0.00257199 0.0889841 -0.0723739 0.0142071 -0.0427324 -0.0232205 0.00975265 -0.0477113 -0.0373274 -0.0645179 0.0246659 -0.0145974 -0.0172798 -0.0461035 0.0781395 -0.0461578 0.0687028 -0.0649278 -0.0324642 0.0216595 0.0599515 0.0939254 -0.00132348 0.064797 -0.046019 0.0903889 -0.0734758 -0.057686 -0.0444101 -0.0183756 -0.00724404 -0.0228045
internal_weight=19842 11160 8682 3973 4709 1655 4098 2772 7062 1882 3054 843 2425 801 890 810 3019 1072 796 480 316 2223 776 960 1326 1961 267 819 2094 213 67 692 767 198 1456 296 121 1160 717 443 464 692 666 172 834 595 770 146 62 126 197 1191 55 742 175 1037 388 186 139 89 494 209
internal_count=19842 11160 8682 3973 4709 1655 4098 2772 7062 1882 3054 843 2425 801 890 810 3019 1072 796 480 316 2223 776 960 1326 1961 267 819 2094 213 67 692 767 198 1456 296 121 1160 717 443 464 692 666 172 834 595 770 146 62 126 197 1191 55 742 175 1037 388 186 139 89 494 209
is_linear=0
shrinkage=0.05


Tree=17
num_leaves=63
num_cat=2
split_feature=9 0 4 4 0 6 8 0 8 5 7 4 7 4 4 0 7 5 4 5 7 5 8 7 7 7 2 4 4 7 7 4 4 4 7 8 4 7 7 4 4 4 7 5 5 7 0 5 7 7 7 2 7 0 4 4 4 0 0 9 7 4
split_gain=10659.6 7710.39 2853.66 8575.08 3922 4569.44 2298.86 2838.36 1008.04 710.219 660.333 485.424 477.218 388.215 370.195 353.286 312.449 234.966 174.726 154.641 137.576 134.897 124.98 123.048 114.557 107.402 104.921 105.717 95.4961 93.8517 81.2958 84.6075 239.284 89.1774 75.8843 69.3959 69.2404 59.4199 50.4865 49.8131 49.1594 96.7208 48.0875 45.734 42.6316 38.0458 37.364 36.2112 34.8605 34.45 33.2647 31.8749 30.6052 30.2528 30.1959 83.1066 28.1069 109.044 27.4899 27.0789 25.6703 24.8416
